<?xml version="1.0"?>
<opencv_storage>
<cascade>
  <stageType>BOOST</stageType>
  <featureType>HAAR</featureType>
  <height>40</height>
  <width>80</width>
  <stageParams>
    <boostType>GAB</boostType>
    <minHitRate>9.9900001287460327e-01</minHitRate>
    <maxFalseAlarm>5.0000000000000000e-01</maxFalseAlarm>
    <weightTrimRate>9.4999999999999996e-01</weightTrimRate>
    <maxDepth>1</maxDepth>
    <maxWeakCount>100</maxWeakCount></stageParams>
  <featureParams>
    <maxCatCount>0</maxCatCount>
    <featSize>1</featSize>
    <mode>ALL</mode></featureParams>
  <stageNum>20</stageNum>
  <stages>
    <!-- stage 0 -->
    <_>
      <maxWeakCount>8</maxWeakCount>
      <stageThreshold>-1.0919241905212402e+00</stageThreshold>
      <weakClassifiers>
        <_>
          <internalNodes>
            0 -1 98 6.2503702938556671e-03</internalNodes>
          <leafValues>
            -4.7499999403953552e-01 6.4038461446762085e-01</leafValues></_>
        <_>
          <internalNodes>
            0 -1 106 2.4268288165330887e-02</internalNodes>
          <leafValues>
            -3.8780292868614197e-01 5.6751298904418945e-01</leafValues></_>
        <_>
          <internalNodes>
            0 -1 110 -2.1760854870080948e-03</internalNodes>
          <leafValues>
            6.7909365892410278e-01 -3.0815109610557556e-01</leafValues></_>
        <_>
          <internalNodes>
            0 -1 187 -7.9283141531050205e-04</internalNodes>
          <leafValues>
            7.0437592267990112e-01 -3.0818215012550354e-01</leafValues></_>
        <_>
          <internalNodes>
            0 -1 48 -5.6028906255960464e-03</internalNodes>
          <leafValues>
            6.1611968278884888e-01 -3.1646722555160522e-01</leafValues></_>
        <_>
          <internalNodes>
            0 -1 156 4.9719540402293205e-03</internalNodes>
          <leafValues>
            -3.4658357501029968e-01 6.1164283752441406e-01</leafValues></_>
        <_>
          <internalNodes>
            0 -1 148 -4.1433534352108836e-04</internalNodes>
          <leafValues>
            4.2734593152999878e-01 -4.5152899622917175e-01</leafValues></_>
        <_>
          <internalNodes>
            0 -1 103 -8.2855031359940767e-04</internalNodes>
          <leafValues>
            6.1865061521530151e-01 -3.3530953526496887e-01</leafValues></_></weakClassifiers></_>
    <!-- stage 1 -->
    <_>
      <maxWeakCount>11</maxWeakCount>
      <stageThreshold>-1.4397808313369751e+00</stageThreshold>
      <weakClassifiers>
        <_>
          <internalNodes>
            0 -1 196 1.9546068870113231e-06</internalNodes>
          <leafValues>
            -2.3862068355083466e-01 6.5485715866088867e-01</leafValues></_>
        <_>
          <internalNodes>
            0 -1 154 4.6862577437423170e-04</internalNodes>
          <leafValues>
            -3.1308355927467346e-01 5.2736639976501465e-01</leafValues></_>
        <_>
          <internalNodes>
            0 -1 3 1.9591485033743083e-04</internalNodes>
          <leafValues>
            -2.8162965178489685e-01 5.8819711208343506e-01</leafValues></_>
        <_>
          <internalNodes>
            0 -1 234 2.2896533664606977e-06</internalNodes>
          <leafValues>
            -3.5176470875740051e-01 4.6331685781478882e-01</leafValues></_>
        <_>
          <internalNodes>
            0 -1 126 1.3324762694537640e-03</internalNodes>
          <leafValues>
            -4.7932615876197815e-01 3.3272024989128113e-01</leafValues></_>
        <_>
          <internalNodes>
            0 -1 258 3.3446529414504766e-03</internalNodes>
          <leafValues>
            -2.3970922827720642e-01 7.0463949441909790e-01</leafValues></_>
        <_>
          <internalNodes>
            0 -1 288 3.9033030043356121e-04</internalNodes>
          <leafValues>
            -1.9714069366455078e-01 6.3736677169799805e-01</leafValues></_>
        <_>
          <internalNodes>
            0 -1 15 2.0080860704183578e-02</internalNodes>
          <leafValues>
            -2.1477471292018890e-01 7.3869913816452026e-01</leafValues></_>
        <_>
          <internalNodes>
            0 -1 204 4.4607854215428233e-04</internalNodes>
          <leafValues>
            -1.8123643100261688e-01 7.5890505313873291e-01</leafValues></_>
        <_>
          <internalNodes>
            0 -1 242 -1.7301170737482607e-04</internalNodes>
          <leafValues>
            4.5201385021209717e-01 -2.9672822356224060e-01</leafValues></_>
        <_>
          <internalNodes>
            0 -1 4 -2.0055620097991778e-06</internalNodes>
          <leafValues>
            4.5147094130516052e-01 -3.5432612895965576e-01</leafValues></_></weakClassifiers></_>
    <!-- stage 2 -->
    <_>
      <maxWeakCount>12</maxWeakCount>
      <stageThreshold>-9.0515244007110596e-01</stageThreshold>
      <weakClassifiers>
        <_>
          <internalNodes>
            0 -1 83 3.5610534250736237e-03</internalNodes>
          <leafValues>
            -3.3333334326744080e-01 4.8898679018020630e-01</leafValues></_>
        <_>
          <internalNodes>
            0 -1 272 1.0769564658403397e-02</internalNodes>
          <leafValues>
            -2.7345728874206543e-01 4.9885275959968567e-01</leafValues></_>
        <_>
          <internalNodes>
            0 -1 239 4.0092145354719833e-06</internalNodes>
          <leafValues>
            -3.9905181527137756e-01 3.8078778982162476e-01</leafValues></_>
        <_>
          <internalNodes>
            0 -1 143 -6.0007831780239940e-04</internalNodes>
          <leafValues>
            6.2560391426086426e-01 -2.3823893070220947e-01</leafValues></_>
        <_>
          <internalNodes>
            0 -1 14 -5.0274897366762161e-03</internalNodes>
          <leafValues>
            5.9842693805694580e-01 -2.3448333144187927e-01</leafValues></_>
        <_>
          <internalNodes>
            0 -1 7 1.6475778073072433e-02</internalNodes>
          <leafValues>
            -2.8389310836791992e-01 5.8942067623138428e-01</leafValues></_>
        <_>
          <internalNodes>
            0 -1 141 -4.4235000386834145e-03</internalNodes>
          <leafValues>
            6.8641549348831177e-01 -1.7974674701690674e-01</leafValues></_>
        <_>
          <internalNodes>
            0 -1 122 3.5345818847417831e-02</internalNodes>
          <leafValues>
            1.7984825372695923e-01 -7.7753520011901855e-01</leafValues></_>
        <_>
          <internalNodes>
            0 -1 94 -1.2599295005202293e-02</internalNodes>
          <leafValues>
            -8.0304992198944092e-01 1.6516980528831482e-01</leafValues></_>
        <_>
          <internalNodes>
            0 -1 159 3.8754550041630864e-04</internalNodes>
          <leafValues>
            -2.8402510285377502e-01 5.8457261323928833e-01</leafValues></_>
        <_>
          <internalNodes>
            0 -1 275 9.7440294921398163e-03</internalNodes>
          <leafValues>
            -2.5875458121299744e-01 5.4130852222442627e-01</leafValues></_>
        <_>
          <internalNodes>
            0 -1 144 2.7434364892542362e-04</internalNodes>
          <leafValues>
            -1.8030458688735962e-01 5.9028357267379761e-01</leafValues></_></weakClassifiers></_>
    <!-- stage 3 -->
    <_>
      <maxWeakCount>16</maxWeakCount>
      <stageThreshold>-1.0591439008712769e+00</stageThreshold>
      <weakClassifiers>
        <_>
          <internalNodes>
            0 -1 78 -6.6070295870304108e-02</internalNodes>
          <leafValues>
            -8.6335402727127075e-01 3.7456566095352173e-01</leafValues></_>
        <_>
          <internalNodes>
            0 -1 168 4.7741550588398241e-06</internalNodes>
          <leafValues>
            -3.7894034385681152e-01 4.0047186613082886e-01</leafValues></_>
        <_>
          <internalNodes>
            0 -1 53 -6.8199802190065384e-03</internalNodes>
          <leafValues>
            4.7751879692077637e-01 -3.2131952047348022e-01</leafValues></_>
        <_>
          <internalNodes>
            0 -1 300 -8.0623840913176537e-03</internalNodes>
          <leafValues>
            5.0925582647323608e-01 -2.5827363133430481e-01</leafValues></_>
        <_>
          <internalNodes>
            0 -1 209 -4.6527134254574776e-03</internalNodes>
          <leafValues>
            6.3620114326477051e-01 -2.3862747848033905e-01</leafValues></_>
        <_>
          <internalNodes>
            0 -1 24 -4.0046186768449843e-04</internalNodes>
          <leafValues>
            8.6575007438659668e-01 -1.4707535505294800e-01</leafValues></_>
        <_>
          <internalNodes>
            0 -1 85 -3.7233717739582062e-03</internalNodes>
          <leafValues>
            7.0393437147140503e-01 -1.7162993550300598e-01</leafValues></_>
        <_>
          <internalNodes>
            0 -1 271 2.4223390500992537e-03</internalNodes>
          <leafValues>
            2.5695005059242249e-01 -5.5261224508285522e-01</leafValues></_>
        <_>
          <internalNodes>
            0 -1 99 9.2207628767937422e-05</internalNodes>
          <leafValues>
            -4.0647602081298828e-01 3.5668167471885681e-01</leafValues></_>
        <_>
          <internalNodes>
            0 -1 147 1.2911513913422823e-03</internalNodes>
          <leafValues>
            -3.2739177346229553e-01 4.5174008607864380e-01</leafValues></_>
        <_>
          <internalNodes>
            0 -1 208 -1.1834342876682058e-04</internalNodes>
          <leafValues>
            6.2085425853729248e-01 -2.0873081684112549e-01</leafValues></_>
        <_>
          <internalNodes>
            0 -1 163 -5.9178262017667294e-04</internalNodes>
          <leafValues>
            5.3424310684204102e-01 -2.2415246069431305e-01</leafValues></_>
        <_>
          <internalNodes>
            0 -1 10 -1.1146703734993935e-02</internalNodes>
          <leafValues>
            4.7547641396522522e-01 -2.4566021561622620e-01</leafValues></_>
        <_>
          <internalNodes>
            0 -1 268 -5.7026173453778028e-04</internalNodes>
          <leafValues>
            5.3542381525039673e-01 -2.3911578953266144e-01</leafValues></_>
        <_>
          <internalNodes>
            0 -1 56 -5.9739537537097931e-03</internalNodes>
          <leafValues>
            6.6401082277297974e-01 -1.9767944514751434e-01</leafValues></_>
        <_>
          <internalNodes>
            0 -1 120 -5.9878500178456306e-04</internalNodes>
          <leafValues>
            -8.6975735425949097e-01 1.7520815134048462e-01</leafValues></_></weakClassifiers></_>
    <!-- stage 4 -->
    <_>
      <maxWeakCount>16</maxWeakCount>
      <stageThreshold>-1.0768308639526367e+00</stageThreshold>
      <weakClassifiers>
        <_>
          <internalNodes>
            0 -1 241 -1.8831065972335637e-04</internalNodes>
          <leafValues>
            4.5697575807571411e-01 -3.6476427316665649e-01</leafValues></_>
        <_>
          <internalNodes>
            0 -1 193 -8.1725016236305237e-02</internalNodes>
          <leafValues>
            -7.9953467845916748e-01 1.9339291751384735e-01</leafValues></_>
        <_>
          <internalNodes>
            0 -1 263 -3.2845935784280300e-03</internalNodes>
          <leafValues>
            4.5104569196701050e-01 -3.0858531594276428e-01</leafValues></_>
        <_>
          <internalNodes>
            0 -1 138 1.6537487681489438e-04</internalNodes>
          <leafValues>
            -1.6392235457897186e-01 7.2648233175277710e-01</leafValues></_>
        <_>
          <internalNodes>
            0 -1 231 -1.0058919433504343e-03</internalNodes>
          <leafValues>
            5.0624901056289673e-01 -2.2770152986049652e-01</leafValues></_>
        <_>
          <internalNodes>
            0 -1 26 -2.0986184244975448e-04</internalNodes>
          <leafValues>
            8.6365270614624023e-01 -1.3769002258777618e-01</leafValues></_>
        <_>
          <internalNodes>
            0 -1 35 5.6293942034244537e-03</internalNodes>
          <leafValues>
            -2.8971385955810547e-01 4.3164062500000000e-01</leafValues></_>
        <_>
          <internalNodes>
            0 -1 213 -1.3399888994172215e-03</internalNodes>
          <leafValues>
            4.0589770674705505e-01 -2.8131347894668579e-01</leafValues></_>
        <_>
          <internalNodes>
            0 -1 295 -1.1699238792061806e-02</internalNodes>
          <leafValues>
            4.6986949443817139e-01 -2.4612016975879669e-01</leafValues></_>
        <_>
          <internalNodes>
            0 -1 291 -1.1206555645912886e-03</internalNodes>
          <leafValues>
            8.3752524852752686e-01 -1.4095592498779297e-01</leafValues></_>
        <_>
          <internalNodes>
            0 -1 259 -2.4178590625524521e-02</internalNodes>
          <leafValues>
            -9.1934555768966675e-01 1.7303495109081268e-01</leafValues></_>
        <_>
          <internalNodes>
            0 -1 172 1.9637020304799080e-03</internalNodes>
          <leafValues>
            -2.1866315603256226e-01 6.1693960428237915e-01</leafValues></_>
        <_>
          <internalNodes>
            0 -1 13 -9.6678063273429871e-03</internalNodes>
          <leafValues>
            6.6158276796340942e-01 -1.4611183106899261e-01</leafValues></_>
        <_>
          <internalNodes>
            0 -1 238 1.9885551409970503e-06</internalNodes>
          <leafValues>
            -3.6914235353469849e-01 3.3435329794883728e-01</leafValues></_>
        <_>
          <internalNodes>
            0 -1 211 -3.3404439454898238e-04</internalNodes>
          <leafValues>
            5.4849648475646973e-01 -2.2449712455272675e-01</leafValues></_>
        <_>
          <internalNodes>
            0 -1 132 2.5065357331186533e-03</internalNodes>
          <leafValues>
            -1.5105168521404266e-01 6.7333662509918213e-01</leafValues></_></weakClassifiers></_>
    <!-- stage 5 -->
    <_>
      <maxWeakCount>19</maxWeakCount>
      <stageThreshold>-1.1245119571685791e+00</stageThreshold>
      <weakClassifiers>
        <_>
          <internalNodes>
            0 -1 212 2.1988003027217928e-06</internalNodes>
          <leafValues>
            -1.2805755436420441e-01 5.4033148288726807e-01</leafValues></_>
        <_>
          <internalNodes>
            0 -1 273 -4.7700285911560059e-02</internalNodes>
          <leafValues>
            4.0289604663848877e-01 -2.6637503504753113e-01</leafValues></_>
        <_>
          <internalNodes>
            0 -1 266 -2.1559499204158783e-02</internalNodes>
          <leafValues>
            5.8220672607421875e-01 -1.7557437717914581e-01</leafValues></_>
        <_>
          <internalNodes>
            0 -1 50 -1.0891353012993932e-03</internalNodes>
          <leafValues>
            7.6250505447387695e-01 -1.5314631164073944e-01</leafValues></_>
        <_>
          <internalNodes>
            0 -1 158 1.6695593949407339e-03</internalNodes>
          <leafValues>
            -1.7902708053588867e-01 5.3867357969284058e-01</leafValues></_>
        <_>
          <internalNodes>
            0 -1 42 -1.9628535956144333e-03</internalNodes>
          <leafValues>
            4.0312805771827698e-01 -2.7022179961204529e-01</leafValues></_>
        <_>
          <internalNodes>
            0 -1 146 1.5993199485819787e-04</internalNodes>
          <leafValues>
            -2.4133142828941345e-01 4.7164002060890198e-01</leafValues></_>
        <_>
          <internalNodes>
            0 -1 195 1.4421169180423021e-04</internalNodes>
          <leafValues>
            -2.5371611118316650e-01 4.3954715132713318e-01</leafValues></_>
        <_>
          <internalNodes>
            0 -1 219 8.8611712271813303e-05</internalNodes>
          <leafValues>
            1.6196715831756592e-01 -7.5139915943145752e-01</leafValues></_>
        <_>
          <internalNodes>
            0 -1 243 -2.4982827017083764e-04</internalNodes>
          <leafValues>
            3.6343294382095337e-01 -3.1088966131210327e-01</leafValues></_>
        <_>
          <internalNodes>
            0 -1 135 2.5699175894260406e-02</internalNodes>
          <leafValues>
            1.2642391026020050e-01 -9.1402631998062134e-01</leafValues></_>
        <_>
          <internalNodes>
            0 -1 200 1.9675239855132531e-06</internalNodes>
          <leafValues>
            -2.9621395468711853e-01 3.7398055195808411e-01</leafValues></_>
        <_>
          <internalNodes>
            0 -1 297 1.7600982391741127e-04</internalNodes>
          <leafValues>
            -1.2469311058521271e-01 8.2354772090911865e-01</leafValues></_>
        <_>
          <internalNodes>
            0 -1 12 -1.9546068870113231e-06</internalNodes>
          <leafValues>
            3.8482272624969482e-01 -2.9360148310661316e-01</leafValues></_>
        <_>
          <internalNodes>
            0 -1 124 5.8712414465844631e-04</internalNodes>
          <leafValues>
            -2.1064336597919464e-01 5.5730301141738892e-01</leafValues></_>
        <_>
          <internalNodes>
            0 -1 20 -1.3160670176148415e-02</internalNodes>
          <leafValues>
            3.8986620306968689e-01 -2.6446571946144104e-01</leafValues></_>
        <_>
          <internalNodes>
            0 -1 136 -2.2195237397681922e-04</internalNodes>
          <leafValues>
            4.8864656686782837e-01 -2.1025818586349487e-01</leafValues></_>
        <_>
          <internalNodes>
            0 -1 180 -2.5145307881757617e-04</internalNodes>
          <leafValues>
            4.7437703609466553e-01 -2.3575025796890259e-01</leafValues></_>
        <_>
          <internalNodes>
            0 -1 151 1.3084895908832550e-04</internalNodes>
          <leafValues>
            1.4357382059097290e-01 -7.6505064964294434e-01</leafValues></_></weakClassifiers></_>
    <!-- stage 6 -->
    <_>
      <maxWeakCount>18</maxWeakCount>
      <stageThreshold>-9.4934648275375366e-01</stageThreshold>
      <weakClassifiers>
        <_>
          <internalNodes>
            0 -1 217 2.0055620097991778e-06</internalNodes>
          <leafValues>
            -1.4244604110717773e-01 5.5138123035430908e-01</leafValues></_>
        <_>
          <internalNodes>
            0 -1 31 -3.2896100310608745e-04</internalNodes>
          <leafValues>
            8.7370711565017700e-01 -1.0382585227489471e-01</leafValues></_>
        <_>
          <internalNodes>
            0 -1 61 4.0835136314854026e-04</internalNodes>
          <leafValues>
            -1.4788442850112915e-01 9.2250537872314453e-01</leafValues></_>
        <_>
          <internalNodes>
            0 -1 279 1.0395749472081661e-02</internalNodes>
          <leafValues>
            -8.7459214031696320e-02 7.7695840597152710e-01</leafValues></_>
        <_>
          <internalNodes>
            0 -1 228 2.0517018128884956e-06</internalNodes>
          <leafValues>
            -2.5072899460792542e-01 4.0933743119239807e-01</leafValues></_>
        <_>
          <internalNodes>
            0 -1 198 5.0588662270456553e-04</internalNodes>
          <leafValues>
            1.3013903796672821e-01 -8.1805312633514404e-01</leafValues></_>
        <_>
          <internalNodes>
            0 -1 232 2.0055620097991778e-06</internalNodes>
          <leafValues>
            -3.6656257510185242e-01 2.6217624545097351e-01</leafValues></_>
        <_>
          <internalNodes>
            0 -1 182 -9.3838963657617569e-03</internalNodes>
          <leafValues>
            -6.0208821296691895e-01 1.9022883474826813e-01</leafValues></_>
        <_>
          <internalNodes>
            0 -1 39 -4.8308906843885779e-04</internalNodes>
          <leafValues>
            7.3490107059478760e-01 -1.3574373722076416e-01</leafValues></_>
        <_>
          <internalNodes>
            0 -1 47 -4.9579538404941559e-02</internalNodes>
          <leafValues>
            -6.6149359941482544e-01 1.7852473258972168e-01</leafValues></_>
        <_>
          <internalNodes>
            0 -1 93 -7.6695457100868225e-03</internalNodes>
          <leafValues>
            5.2441465854644775e-01 -2.1378283202648163e-01</leafValues></_>
        <_>
          <internalNodes>
            0 -1 142 4.8445314168930054e-03</internalNodes>
          <leafValues>
            -1.2647055089473724e-01 8.3559447526931763e-01</leafValues></_>
        <_>
          <internalNodes>
            0 -1 257 1.5450860373675823e-02</internalNodes>
          <leafValues>
            -2.4950022995471954e-01 4.3486800789833069e-01</leafValues></_>
        <_>
          <internalNodes>
            0 -1 185 4.6210107393562794e-03</internalNodes>
          <leafValues>
            -1.2855835258960724e-01 7.2122633457183838e-01</leafValues></_>
        <_>
          <internalNodes>
            0 -1 46 1.1133269872516394e-03</internalNodes>
          <leafValues>
            -1.1213643848896027e-01 7.5064104795455933e-01</leafValues></_>
        <_>
          <internalNodes>
            0 -1 25 -6.1592290876433253e-06</internalNodes>
          <leafValues>
            3.4295731782913208e-01 -2.8726604580879211e-01</leafValues></_>
        <_>
          <internalNodes>
            0 -1 164 4.3312767520546913e-03</internalNodes>
          <leafValues>
            -1.9040739536285400e-01 5.3831350803375244e-01</leafValues></_>
        <_>
          <internalNodes>
            0 -1 188 -5.5535510182380676e-04</internalNodes>
          <leafValues>
            6.2263381481170654e-01 -1.6442857682704926e-01</leafValues></_></weakClassifiers></_>
    <!-- stage 7 -->
    <_>
      <maxWeakCount>17</maxWeakCount>
      <stageThreshold>-1.0680156946182251e+00</stageThreshold>
      <weakClassifiers>
        <_>
          <internalNodes>
            0 -1 207 2.2357151010510279e-06</internalNodes>
          <leafValues>
            -1.3709677755832672e-01 5.8644860982894897e-01</leafValues></_>
        <_>
          <internalNodes>
            0 -1 224 -4.7858274774625897e-04</internalNodes>
          <leafValues>
            -7.1434175968170166e-01 1.8591669201850891e-01</leafValues></_>
        <_>
          <internalNodes>
            0 -1 70 -8.5425622761249542e-02</internalNodes>
          <leafValues>
            -7.6175719499588013e-01 1.6090904176235199e-01</leafValues></_>
        <_>
          <internalNodes>
            0 -1 214 8.3948549581691623e-04</internalNodes>
          <leafValues>
            -2.0593719184398651e-01 7.0746803283691406e-01</leafValues></_>
        <_>
          <internalNodes>
            0 -1 296 1.9418109150137752e-04</internalNodes>
          <leafValues>
            -1.7751273512840271e-01 6.7459303140640259e-01</leafValues></_>
        <_>
          <internalNodes>
            0 -1 278 3.2066605053842068e-03</internalNodes>
          <leafValues>
            -1.6213329136371613e-01 6.2816900014877319e-01</leafValues></_>
        <_>
          <internalNodes>
            0 -1 178 -1.1948289466090500e-04</internalNodes>
          <leafValues>
            -4.7388777136802673e-01 2.3012685775756836e-01</leafValues></_>
        <_>
          <internalNodes>
            0 -1 32 7.3703052476048470e-04</internalNodes>
          <leafValues>
            -1.5535950660705566e-01 7.1881866455078125e-01</leafValues></_>
        <_>
          <internalNodes>
            0 -1 23 -2.0260611108824378e-06</internalNodes>
          <leafValues>
            3.4894213080406189e-01 -3.1533610820770264e-01</leafValues></_>
        <_>
          <internalNodes>
            0 -1 194 -2.9860262293368578e-03</internalNodes>
          <leafValues>
            6.7854815721511841e-01 -1.7021630704402924e-01</leafValues></_>
        <_>
          <internalNodes>
            0 -1 90 -5.6492706062272191e-04</internalNodes>
          <leafValues>
            -6.6700023412704468e-01 2.0028015971183777e-01</leafValues></_>
        <_>
          <internalNodes>
            0 -1 184 2.0055620097991778e-06</internalNodes>
          <leafValues>
            -3.3697071671485901e-01 3.0887755751609802e-01</leafValues></_>
        <_>
          <internalNodes>
            0 -1 202 3.2412743894383311e-04</internalNodes>
          <leafValues>
            -2.3425859212875366e-01 4.6588349342346191e-01</leafValues></_>
        <_>
          <internalNodes>
            0 -1 254 -1.3473695144057274e-02</internalNodes>
          <leafValues>
            5.0412124395370483e-01 -1.9513839483261108e-01</leafValues></_>
        <_>
          <internalNodes>
            0 -1 190 -9.2491731047630310e-03</internalNodes>
          <leafValues>
            3.9407783746719360e-01 -2.7951580286026001e-01</leafValues></_>
        <_>
          <internalNodes>
            0 -1 199 2.3387381133943563e-06</internalNodes>
          <leafValues>
            -2.4500699341297150e-01 4.4741371273994446e-01</leafValues></_>
        <_>
          <internalNodes>
            0 -1 127 4.9331553280353546e-02</internalNodes>
          <leafValues>
            1.2830725312232971e-01 -9.5164012908935547e-01</leafValues></_></weakClassifiers></_>
    <!-- stage 8 -->
    <_>
      <maxWeakCount>17</maxWeakCount>
      <stageThreshold>-9.6203154325485229e-01</stageThreshold>
      <weakClassifiers>
        <_>
          <internalNodes>
            0 -1 249 8.1518329679965973e-03</internalNodes>
          <leafValues>
            3.5153582692146301e-01 -8.5185188055038452e-01</leafValues></_>
        <_>
          <internalNodes>
            0 -1 19 5.0506740808486938e-04</internalNodes>
          <leafValues>
            -1.1784865707159042e-01 7.1669167280197144e-01</leafValues></_>
        <_>
          <internalNodes>
            0 -1 161 2.0055620097991778e-06</internalNodes>
          <leafValues>
            -3.5970744490623474e-01 2.6587310433387756e-01</leafValues></_>
        <_>
          <internalNodes>
            0 -1 114 5.1978576928377151e-02</internalNodes>
          <leafValues>
            8.0596074461936951e-02 -8.8551360368728638e-01</leafValues></_>
        <_>
          <internalNodes>
            0 -1 43 7.8757747542113066e-04</internalNodes>
          <leafValues>
            -1.3306897878646851e-01 9.4925284385681152e-01</leafValues></_>
        <_>
          <internalNodes>
            0 -1 292 -3.2180681591853499e-04</internalNodes>
          <leafValues>
            7.7048534154891968e-01 -6.1592333018779755e-02</leafValues></_>
        <_>
          <internalNodes>
            0 -1 112 -1.0357211576774716e-03</internalNodes>
          <leafValues>
            5.9260380268096924e-01 -1.6710200905799866e-01</leafValues></_>
        <_>
          <internalNodes>
            0 -1 162 2.6379998307675123e-03</internalNodes>
          <leafValues>
            -1.8170306086540222e-01 5.1019281148910522e-01</leafValues></_>
        <_>
          <internalNodes>
            0 -1 179 -8.9399749413132668e-04</internalNodes>
          <leafValues>
            6.2522321939468384e-01 -1.8287709355354309e-01</leafValues></_>
        <_>
          <internalNodes>
            0 -1 218 -1.6558180504944175e-04</internalNodes>
          <leafValues>
            -6.7578178644180298e-01 1.5724787116050720e-01</leafValues></_>
        <_>
          <internalNodes>
            0 -1 247 2.0317820599302649e-06</internalNodes>
          <leafValues>
            -2.1731100976467133e-01 4.5996561646461487e-01</leafValues></_>
        <_>
          <internalNodes>
            0 -1 237 -3.5243040201748954e-06</internalNodes>
          <leafValues>
            2.7542853355407715e-01 -3.3890950679779053e-01</leafValues></_>
        <_>
          <internalNodes>
            0 -1 269 -6.0571026988327503e-03</internalNodes>
          <leafValues>
            6.5307670831680298e-01 -1.5238055586814880e-01</leafValues></_>
        <_>
          <internalNodes>
            0 -1 97 -1.1921279132366180e-02</internalNodes>
          <leafValues>
            -8.1230437755584717e-01 1.3716670870780945e-01</leafValues></_>
        <_>
          <internalNodes>
            0 -1 28 -6.9676485145464540e-04</internalNodes>
          <leafValues>
            5.5667597055435181e-01 -1.8730537593364716e-01</leafValues></_>
        <_>
          <internalNodes>
            0 -1 149 2.1497489797184244e-06</internalNodes>
          <leafValues>
            -2.7643650770187378e-01 3.4973376989364624e-01</leafValues></_>
        <_>
          <internalNodes>
            0 -1 167 1.9885551409970503e-06</internalNodes>
          <leafValues>
            -3.9768981933593750e-01 2.6894327998161316e-01</leafValues></_></weakClassifiers></_>
    <!-- stage 9 -->
    <_>
      <maxWeakCount>18</maxWeakCount>
      <stageThreshold>-1.0132538080215454e+00</stageThreshold>
      <weakClassifiers>
        <_>
          <internalNodes>
            0 -1 64 7.6424935832619667e-04</internalNodes>
          <leafValues>
            4.5683151483535767e-01 -3.5626536607742310e-01</leafValues></_>
        <_>
          <internalNodes>
            0 -1 223 1.9546068870113231e-06</internalNodes>
          <leafValues>
            -3.3157816529273987e-01 2.9670548439025879e-01</leafValues></_>
        <_>
          <internalNodes>
            0 -1 79 2.1577314473688602e-03</internalNodes>
          <leafValues>
            -1.9281631708145142e-01 5.0786572694778442e-01</leafValues></_>
        <_>
          <internalNodes>
            0 -1 233 -3.3821423130575567e-05</internalNodes>
          <leafValues>
            -8.0653631687164307e-01 8.9545942842960358e-02</leafValues></_>
        <_>
          <internalNodes>
            0 -1 18 -1.4654411934316158e-03</internalNodes>
          <leafValues>
            7.1353769302368164e-01 -1.5094466507434845e-01</leafValues></_>
        <_>
          <internalNodes>
            0 -1 253 -5.2777901291847229e-03</internalNodes>
          <leafValues>
            5.7320737838745117e-01 -1.4512863755226135e-01</leafValues></_>
        <_>
          <internalNodes>
            0 -1 270 -1.8299058079719543e-02</internalNodes>
          <leafValues>
            7.4003672599792480e-01 -1.0233769565820694e-01</leafValues></_>
        <_>
          <internalNodes>
            0 -1 170 6.1666083638556302e-05</internalNodes>
          <leafValues>
            1.5306754410266876e-01 -6.7881566286087036e-01</leafValues></_>
        <_>
          <internalNodes>
            0 -1 139 -1.0902753565460443e-03</internalNodes>
          <leafValues>
            6.8836379051208496e-01 -1.6947925090789795e-01</leafValues></_>
        <_>
          <internalNodes>
            0 -1 115 2.3027362301945686e-02</internalNodes>
          <leafValues>
            1.4047876000404358e-01 -7.4798160791397095e-01</leafValues></_>
        <_>
          <internalNodes>
            0 -1 222 -3.2993886270560324e-04</internalNodes>
          <leafValues>
            4.5790046453475952e-01 -2.0937238633632660e-01</leafValues></_>
        <_>
          <internalNodes>
            0 -1 123 -1.5052924863994122e-03</internalNodes>
          <leafValues>
            4.8586243391036987e-01 -2.0136584341526031e-01</leafValues></_>
        <_>
          <internalNodes>
            0 -1 111 2.9466782507370226e-06</internalNodes>
          <leafValues>
            -3.7897074222564697e-01 2.6272228360176086e-01</leafValues></_>
        <_>
          <internalNodes>
            0 -1 298 3.0137776775518432e-05</internalNodes>
          <leafValues>
            2.2491113841533661e-01 -4.5549306273460388e-01</leafValues></_>
        <_>
          <internalNodes>
            0 -1 225 3.1313467770814896e-02</internalNodes>
          <leafValues>
            -1.5109255909919739e-01 7.3221504688262939e-01</leafValues></_>
        <_>
          <internalNodes>
            0 -1 246 -6.4404227305203676e-04</internalNodes>
          <leafValues>
            4.0848067402839661e-01 -2.5348576903343201e-01</leafValues></_>
        <_>
          <internalNodes>
            0 -1 145 -4.7700153663754463e-03</internalNodes>
          <leafValues>
            8.0105626583099365e-01 -1.3222952187061310e-01</leafValues></_>
        <_>
          <internalNodes>
            0 -1 101 -5.0581465475261211e-03</internalNodes>
          <leafValues>
            -5.2664905786514282e-01 2.2939759492874146e-01</leafValues></_></weakClassifiers></_>
    <!-- stage 10 -->
    <_>
      <maxWeakCount>23</maxWeakCount>
      <stageThreshold>-1.2632890939712524e+00</stageThreshold>
      <weakClassifiers>
        <_>
          <internalNodes>
            0 -1 96 -1.4337504282593727e-02</internalNodes>
          <leafValues>
            -7.1590906381607056e-01 3.6938202381134033e-01</leafValues></_>
        <_>
          <internalNodes>
            0 -1 17 -1.9015797879546881e-03</internalNodes>
          <leafValues>
            7.1733230352401733e-01 -1.2855881452560425e-01</leafValues></_>
        <_>
          <internalNodes>
            0 -1 21 7.9601879406254739e-05</internalNodes>
          <leafValues>
            1.8316587805747986e-01 -5.9520536661148071e-01</leafValues></_>
        <_>
          <internalNodes>
            0 -1 290 2.3099449754226953e-04</internalNodes>
          <leafValues>
            -1.3023240864276886e-01 8.0457836389541626e-01</leafValues></_>
        <_>
          <internalNodes>
            0 -1 206 -4.7359695599880069e-05</internalNodes>
          <leafValues>
            -5.9041810035705566e-01 1.7932350933551788e-01</leafValues></_>
        <_>
          <internalNodes>
            0 -1 277 -4.1192479431629181e-02</internalNodes>
          <leafValues>
            3.7550935149192810e-01 -2.8249052166938782e-01</leafValues></_>
        <_>
          <internalNodes>
            0 -1 157 -9.2555390438064933e-04</internalNodes>
          <leafValues>
            6.2628495693206787e-01 -1.3205684721469879e-01</leafValues></_>
        <_>
          <internalNodes>
            0 -1 176 2.0055620097991778e-06</internalNodes>
          <leafValues>
            -2.9825672507286072e-01 3.2828995585441589e-01</leafValues></_>
        <_>
          <internalNodes>
            0 -1 117 1.1955485679209232e-03</internalNodes>
          <leafValues>
            -4.4285747408866882e-01 2.1790228784084320e-01</leafValues></_>
        <_>
          <internalNodes>
            0 -1 134 -1.9165058620274067e-03</internalNodes>
          <leafValues>
            6.7091554403305054e-01 -1.6749362647533417e-01</leafValues></_>
        <_>
          <internalNodes>
            0 -1 240 -5.5131014960352331e-05</internalNodes>
          <leafValues>
            -6.5765345096588135e-01 1.7149510979652405e-01</leafValues></_>
        <_>
          <internalNodes>
            0 -1 201 -1.3562765670940280e-03</internalNodes>
          <leafValues>
            5.1919233798980713e-01 -1.9881865382194519e-01</leafValues></_>
        <_>
          <internalNodes>
            0 -1 203 -3.5002180375158787e-03</internalNodes>
          <leafValues>
            4.5957517623901367e-01 -1.9218164682388306e-01</leafValues></_>
        <_>
          <internalNodes>
            0 -1 51 -1.6978738131001592e-04</internalNodes>
          <leafValues>
            -3.9954185485839844e-01 2.2586721181869507e-01</leafValues></_>
        <_>
          <internalNodes>
            0 -1 5 4.2617762119334657e-06</internalNodes>
          <leafValues>
            -2.4228514730930328e-01 3.6895513534545898e-01</leafValues></_>
        <_>
          <internalNodes>
            0 -1 205 -8.1951264292001724e-03</internalNodes>
          <leafValues>
            -9.2377698421478271e-01 1.0555613785982132e-01</leafValues></_>
        <_>
          <internalNodes>
            0 -1 155 -1.9213386112824082e-03</internalNodes>
          <leafValues>
            5.6157183647155762e-01 -1.8786166608333588e-01</leafValues></_>
        <_>
          <internalNodes>
            0 -1 165 4.9201498040929437e-04</internalNodes>
          <leafValues>
            -2.1538360416889191e-01 4.8850348591804504e-01</leafValues></_>
        <_>
          <internalNodes>
            0 -1 118 -1.8872565124183893e-03</internalNodes>
          <leafValues>
            -6.8709498643875122e-01 1.5724785625934601e-01</leafValues></_>
        <_>
          <internalNodes>
            0 -1 8 5.2456127014011145e-04</internalNodes>
          <leafValues>
            -1.8329994380474091e-01 5.7187145948410034e-01</leafValues></_>
        <_>
          <internalNodes>
            0 -1 280 4.2510060593485832e-03</internalNodes>
          <leafValues>
            -1.1198998242616653e-01 6.9130080938339233e-01</leafValues></_>
        <_>
          <internalNodes>
            0 -1 81 -1.1403019540011883e-02</internalNodes>
          <leafValues>
            -4.7608962655067444e-01 2.0348271727561951e-01</leafValues></_>
        <_>
          <internalNodes>
            0 -1 89 3.4758560359477997e-02</internalNodes>
          <leafValues>
            1.3997822999954224e-01 -7.0020377635955811e-01</leafValues></_></weakClassifiers></_>
    <!-- stage 11 -->
    <_>
      <maxWeakCount>20</maxWeakCount>
      <stageThreshold>-1.1009106636047363e+00</stageThreshold>
      <weakClassifiers>
        <_>
          <internalNodes>
            0 -1 100 -6.7847715690732002e-03</internalNodes>
          <leafValues>
            -6.7105263471603394e-01 3.4668508172035217e-01</leafValues></_>
        <_>
          <internalNodes>
            0 -1 294 -2.1489223581738770e-04</internalNodes>
          <leafValues>
            7.3233658075332642e-01 -8.5982054471969604e-02</leafValues></_>
        <_>
          <internalNodes>
            0 -1 175 2.5199549327226123e-06</internalNodes>
          <leafValues>
            -3.9043685793876648e-01 2.2060452401638031e-01</leafValues></_>
        <_>
          <internalNodes>
            0 -1 290 2.3099449754226953e-04</internalNodes>
          <leafValues>
            -1.7968861758708954e-01 6.7792028188705444e-01</leafValues></_>
        <_>
          <internalNodes>
            0 -1 44 -5.2432650700211525e-03</internalNodes>
          <leafValues>
            5.0675773620605469e-01 -1.4851936697959900e-01</leafValues></_>
        <_>
          <internalNodes>
            0 -1 40 -3.4910024260170758e-04</internalNodes>
          <leafValues>
            8.1124496459960938e-01 -1.3568034768104553e-01</leafValues></_>
        <_>
          <internalNodes>
            0 -1 286 1.0487800464034081e-03</internalNodes>
          <leafValues>
            -7.6564520597457886e-02 8.3903461694717407e-01</leafValues></_>
        <_>
          <internalNodes>
            0 -1 130 4.4881053327117115e-06</internalNodes>
          <leafValues>
            -2.7524343132972717e-01 3.4189298748970032e-01</leafValues></_>
        <_>
          <internalNodes>
            0 -1 260 -6.9475066848099232e-03</internalNodes>
          <leafValues>
            4.4833192229270935e-01 -2.3473550379276276e-01</leafValues></_>
        <_>
          <internalNodes>
            0 -1 174 -4.4510459701996297e-05</internalNodes>
          <leafValues>
            -5.8512222766876221e-01 1.7870944738388062e-01</leafValues></_>
        <_>
          <internalNodes>
            0 -1 191 5.7196630223188549e-06</internalNodes>
          <leafValues>
            -2.4428424239158630e-01 3.9160159230232239e-01</leafValues></_>
        <_>
          <internalNodes>
            0 -1 77 -3.1658045947551727e-02</internalNodes>
          <leafValues>
            4.6183741092681885e-01 -2.5194245576858521e-01</leafValues></_>
        <_>
          <internalNodes>
            0 -1 166 2.1572920959442854e-03</internalNodes>
          <leafValues>
            -2.0739533007144928e-01 4.4115439057350159e-01</leafValues></_>
        <_>
          <internalNodes>
            0 -1 210 1.1022666003555059e-03</internalNodes>
          <leafValues>
            -2.0134744048118591e-01 5.0840622186660767e-01</leafValues></_>
        <_>
          <internalNodes>
            0 -1 104 2.8365913778543472e-02</internalNodes>
          <leafValues>
            2.1687023341655731e-01 -5.6291234493255615e-01</leafValues></_>
        <_>
          <internalNodes>
            0 -1 80 -1.4693135744892061e-04</internalNodes>
          <leafValues>
            -4.5159530639648438e-01 1.9676181674003601e-01</leafValues></_>
        <_>
          <internalNodes>
            0 -1 65 -5.6365588534390554e-06</internalNodes>
          <leafValues>
            3.1478467583656311e-01 -2.9068255424499512e-01</leafValues></_>
        <_>
          <internalNodes>
            0 -1 173 2.9388460097834468e-04</internalNodes>
          <leafValues>
            1.3568353652954102e-01 -7.1524292230606079e-01</leafValues></_>
        <_>
          <internalNodes>
            0 -1 69 -3.9641000330448151e-03</internalNodes>
          <leafValues>
            6.8682587146759033e-01 -1.6236475110054016e-01</leafValues></_>
        <_>
          <internalNodes>
            0 -1 88 -1.1144853197038174e-02</internalNodes>
          <leafValues>
            5.6485670804977417e-01 -1.3937015831470490e-01</leafValues></_></weakClassifiers></_>
    <!-- stage 12 -->
    <_>
      <maxWeakCount>16</maxWeakCount>
      <stageThreshold>-1.4740802049636841e+00</stageThreshold>
      <weakClassifiers>
        <_>
          <internalNodes>
            0 -1 256 1.3920560013502836e-03</internalNodes>
          <leafValues>
            4.5341613888740540e-01 -5.8974361419677734e-01</leafValues></_>
        <_>
          <internalNodes>
            0 -1 67 9.2362597584724426e-02</internalNodes>
          <leafValues>
            1.9330263137817383e-01 -8.2177668809890747e-01</leafValues></_>
        <_>
          <internalNodes>
            0 -1 137 -6.1916915001347661e-04</internalNodes>
          <leafValues>
            5.9644341468811035e-01 -2.2512094676494598e-01</leafValues></_>
        <_>
          <internalNodes>
            0 -1 121 -1.7496060580015182e-02</internalNodes>
          <leafValues>
            4.7252285480499268e-01 -2.7726238965988159e-01</leafValues></_>
        <_>
          <internalNodes>
            0 -1 54 -1.2145213782787323e-02</internalNodes>
          <leafValues>
            4.8500752449035645e-01 -2.8066495060920715e-01</leafValues></_>
        <_>
          <internalNodes>
            0 -1 9 -7.3293847963213921e-03</internalNodes>
          <leafValues>
            5.4951417446136475e-01 -2.1351133286952972e-01</leafValues></_>
        <_>
          <internalNodes>
            0 -1 27 1.6819052398204803e-02</internalNodes>
          <leafValues>
            -1.5793669223785400e-01 7.4006557464599609e-01</leafValues></_>
        <_>
          <internalNodes>
            0 -1 299 2.5351926069561159e-06</internalNodes>
          <leafValues>
            -2.7819216251373291e-01 4.3790376186370850e-01</leafValues></_>
        <_>
          <internalNodes>
            0 -1 297 1.7791613936424255e-04</internalNodes>
          <leafValues>
            -8.8644266128540039e-02 9.2345041036605835e-01</leafValues></_>
        <_>
          <internalNodes>
            0 -1 133 -2.3785195662640035e-04</internalNodes>
          <leafValues>
            6.3376456499099731e-01 -1.5373992919921875e-01</leafValues></_>
        <_>
          <internalNodes>
            0 -1 245 -9.3530991580337286e-04</internalNodes>
          <leafValues>
            3.5356068611145020e-01 -3.0875527858734131e-01</leafValues></_>
        <_>
          <internalNodes>
            0 -1 22 8.2877908425871283e-05</internalNodes>
          <leafValues>
            1.0960289090871811e-01 -8.8997787237167358e-01</leafValues></_>
        <_>
          <internalNodes>
            0 -1 274 9.8368823528289795e-03</internalNodes>
          <leafValues>
            -2.5622630119323730e-01 4.5920965075492859e-01</leafValues></_>
        <_>
          <internalNodes>
            0 -1 229 5.9862373746000230e-05</internalNodes>
          <leafValues>
            1.8235222995281219e-01 -5.9683656692504883e-01</leafValues></_>
        <_>
          <internalNodes>
            0 -1 75 -7.1402331814169884e-03</internalNodes>
          <leafValues>
            4.5166465640068054e-01 -2.5631767511367798e-01</leafValues></_>
        <_>
          <internalNodes>
            0 -1 264 -1.8310196173842996e-04</internalNodes>
          <leafValues>
            -5.7052308320999146e-01 2.0049069821834564e-01</leafValues></_></weakClassifiers></_>
    <!-- stage 13 -->
    <_>
      <maxWeakCount>15</maxWeakCount>
      <stageThreshold>-1.3168619871139526e+00</stageThreshold>
      <weakClassifiers>
        <_>
          <internalNodes>
            0 -1 262 -3.9737105369567871e-02</internalNodes>
          <leafValues>
            -7.5107294321060181e-01 4.2062911391258240e-01</leafValues></_>
        <_>
          <internalNodes>
            0 -1 52 -2.4364506825804710e-02</internalNodes>
          <leafValues>
            4.9622616171836853e-01 -3.2328200340270996e-01</leafValues></_>
        <_>
          <internalNodes>
            0 -1 189 -4.0291738696396351e-03</internalNodes>
          <leafValues>
            -6.6806846857070923e-01 2.9108765721321106e-01</leafValues></_>
        <_>
          <internalNodes>
            0 -1 152 2.2224169224500656e-03</internalNodes>
          <leafValues>
            2.1525344252586365e-01 -5.8057785034179688e-01</leafValues></_>
        <_>
          <internalNodes>
            0 -1 29 6.4326374558731914e-04</internalNodes>
          <leafValues>
            -1.9526171684265137e-01 8.3493226766586304e-01</leafValues></_>
        <_>
          <internalNodes>
            0 -1 169 -2.2627180442214012e-04</internalNodes>
          <leafValues>
            -8.1002873182296753e-01 1.9706356525421143e-01</leafValues></_>
        <_>
          <internalNodes>
            0 -1 76 -2.9163188301026821e-03</internalNodes>
          <leafValues>
            7.2381085157394409e-01 -2.5535732507705688e-01</leafValues></_>
        <_>
          <internalNodes>
            0 -1 45 3.2944002305157483e-04</internalNodes>
          <leafValues>
            -1.5805923938751221e-01 6.8753421306610107e-01</leafValues></_>
        <_>
          <internalNodes>
            0 -1 192 -1.7564548761583865e-04</internalNodes>
          <leafValues>
            -5.5839556455612183e-01 2.5983396172523499e-01</leafValues></_>
        <_>
          <internalNodes>
            0 -1 261 -8.9702606201171875e-03</internalNodes>
          <leafValues>
            6.4354276657104492e-01 -1.8632413446903229e-01</leafValues></_>
        <_>
          <internalNodes>
            0 -1 285 1.0163310798816383e-04</internalNodes>
          <leafValues>
            2.6308220624923706e-01 -5.0128269195556641e-01</leafValues></_>
        <_>
          <internalNodes>
            0 -1 220 1.0276222601532936e-03</internalNodes>
          <leafValues>
            -1.8182514607906342e-01 7.3650157451629639e-01</leafValues></_>
        <_>
          <internalNodes>
            0 -1 107 1.0705086169764400e-03</internalNodes>
          <leafValues>
            -4.4702860713005066e-01 2.7717953920364380e-01</leafValues></_>
        <_>
          <internalNodes>
            0 -1 74 1.5168567188084126e-03</internalNodes>
          <leafValues>
            -2.9554483294487000e-01 4.6297815442085266e-01</leafValues></_>
        <_>
          <internalNodes>
            0 -1 183 2.7831820771098137e-03</internalNodes>
          <leafValues>
            1.5758650004863739e-01 -8.8823384046554565e-01</leafValues></_></weakClassifiers></_>
    <!-- stage 14 -->
    <_>
      <maxWeakCount>8</maxWeakCount>
      <stageThreshold>-1.4089181423187256e+00</stageThreshold>
      <weakClassifiers>
        <_>
          <internalNodes>
            0 -1 129 9.6056982874870300e-04</internalNodes>
          <leafValues>
            5.3643411397933960e-01 -9.4193547964096069e-01</leafValues></_>
        <_>
          <internalNodes>
            0 -1 125 1.5071041416376829e-03</internalNodes>
          <leafValues>
            -5.1027244329452515e-01 3.7298005819320679e-01</leafValues></_>
        <_>
          <internalNodes>
            0 -1 84 -3.4486120566725731e-03</internalNodes>
          <leafValues>
            -6.5193766355514526e-01 2.3161211609840393e-01</leafValues></_>
        <_>
          <internalNodes>
            0 -1 11 3.0373673886060715e-02</internalNodes>
          <leafValues>
            -2.0771399140357971e-01 7.7744090557098389e-01</leafValues></_>
        <_>
          <internalNodes>
            0 -1 60 -2.8795088292099535e-04</internalNodes>
          <leafValues>
            -6.1723643541336060e-01 2.8966778516769409e-01</leafValues></_>
        <_>
          <internalNodes>
            0 -1 252 4.4587794691324234e-03</internalNodes>
          <leafValues>
            -2.8877186775207520e-01 7.3639661073684692e-01</leafValues></_>
        <_>
          <internalNodes>
            0 -1 283 -3.8786444929428399e-04</internalNodes>
          <leafValues>
            -5.7594639062881470e-01 3.0859714746475220e-01</leafValues></_>
        <_>
          <internalNodes>
            0 -1 282 -1.4218911528587341e-03</internalNodes>
          <leafValues>
            6.6851156949996948e-01 -2.8980407118797302e-01</leafValues></_></weakClassifiers></_>
    <!-- stage 15 -->
    <_>
      <maxWeakCount>14</maxWeakCount>
      <stageThreshold>-1.2002919912338257e+00</stageThreshold>
      <weakClassifiers>
        <_>
          <internalNodes>
            0 -1 86 -5.3756292909383774e-03</internalNodes>
          <leafValues>
            -6.0139858722686768e-01 4.3531203269958496e-01</leafValues></_>
        <_>
          <internalNodes>
            0 -1 181 8.2435067743062973e-03</internalNodes>
          <leafValues>
            2.5323212146759033e-01 -6.6478919982910156e-01</leafValues></_>
        <_>
          <internalNodes>
            0 -1 30 7.7689974568784237e-04</internalNodes>
          <leafValues>
            -1.9122372567653656e-01 6.5365976095199585e-01</leafValues></_>
        <_>
          <internalNodes>
            0 -1 1 -1.9459857139736414e-04</internalNodes>
          <leafValues>
            4.5882555842399597e-01 -2.9465049505233765e-01</leafValues></_>
        <_>
          <internalNodes>
            0 -1 244 -1.2942273169755936e-03</internalNodes>
          <leafValues>
            4.5953038334846497e-01 -2.7183529734611511e-01</leafValues></_>
        <_>
          <internalNodes>
            0 -1 38 8.8765961118042469e-04</internalNodes>
          <leafValues>
            -2.4942655861377716e-01 4.7328948974609375e-01</leafValues></_>
        <_>
          <internalNodes>
            0 -1 160 -1.2986696674488485e-04</internalNodes>
          <leafValues>
            -5.0183475017547607e-01 2.4379785358905792e-01</leafValues></_>
        <_>
          <internalNodes>
            0 -1 66 -2.1980865858495235e-04</internalNodes>
          <leafValues>
            -6.4240497350692749e-01 1.7207168042659760e-01</leafValues></_>
        <_>
          <internalNodes>
            0 -1 72 -6.7479740828275681e-03</internalNodes>
          <leafValues>
            5.2558213472366333e-01 -2.2601915895938873e-01</leafValues></_>
        <_>
          <internalNodes>
            0 -1 33 2.3813622072339058e-02</internalNodes>
          <leafValues>
            -2.0667445659637451e-01 6.0555076599121094e-01</leafValues></_>
        <_>
          <internalNodes>
            0 -1 0 -9.4913644716143608e-04</internalNodes>
          <leafValues>
            8.7971222400665283e-01 -1.0676824301481247e-01</leafValues></_>
        <_>
          <internalNodes>
            0 -1 248 -4.3936632573604584e-04</internalNodes>
          <leafValues>
            -7.5395375490188599e-01 1.7756882309913635e-01</leafValues></_>
        <_>
          <internalNodes>
            0 -1 92 -3.3507933840155602e-03</internalNodes>
          <leafValues>
            6.8374258279800415e-01 -2.0897765457630157e-01</leafValues></_>
        <_>
          <internalNodes>
            0 -1 227 9.5416361000388861e-04</internalNodes>
          <leafValues>
            2.1076081693172455e-01 -6.5924328565597534e-01</leafValues></_></weakClassifiers></_>
    <!-- stage 16 -->
    <_>
      <maxWeakCount>14</maxWeakCount>
      <stageThreshold>-1.1684352159500122e+00</stageThreshold>
      <weakClassifiers>
        <_>
          <internalNodes>
            0 -1 113 5.0816927105188370e-02</internalNodes>
          <leafValues>
            4.8926013708114624e-01 -6.2682217359542847e-01</leafValues></_>
        <_>
          <internalNodes>
            0 -1 281 1.6736541874706745e-04</internalNodes>
          <leafValues>
            2.3879238963127136e-01 -6.3227361440658569e-01</leafValues></_>
        <_>
          <internalNodes>
            0 -1 153 6.2547612469643354e-04</internalNodes>
          <leafValues>
            -2.5286704301834106e-01 5.3434276580810547e-01</leafValues></_>
        <_>
          <internalNodes>
            0 -1 278 3.3716945908963680e-03</internalNodes>
          <leafValues>
            -1.5475735068321228e-01 7.9087007045745850e-01</leafValues></_>
        <_>
          <internalNodes>
            0 -1 37 4.0353578515350819e-04</internalNodes>
          <leafValues>
            -1.4349265396595001e-01 8.6069917678833008e-01</leafValues></_>
        <_>
          <internalNodes>
            0 -1 150 -4.9428577767685056e-05</internalNodes>
          <leafValues>
            -5.9773522615432739e-01 2.2200974822044373e-01</leafValues></_>
        <_>
          <internalNodes>
            0 -1 267 -1.6923218208830804e-04</internalNodes>
          <leafValues>
            4.3039110302925110e-01 -2.6989269256591797e-01</leafValues></_>
        <_>
          <internalNodes>
            0 -1 265 2.3032529279589653e-03</internalNodes>
          <leafValues>
            -2.0835827291011810e-01 6.6747248172760010e-01</leafValues></_>
        <_>
          <internalNodes>
            0 -1 251 5.3558417130261660e-04</internalNodes>
          <leafValues>
            1.9272622466087341e-01 -7.0913678407669067e-01</leafValues></_>
        <_>
          <internalNodes>
            0 -1 109 -5.9044510126113892e-02</internalNodes>
          <leafValues>
            7.0269155502319336e-01 -1.9525265693664551e-01</leafValues></_>
        <_>
          <internalNodes>
            0 -1 293 -3.9349452708847821e-04</internalNodes>
          <leafValues>
            8.3735066652297974e-01 -1.2595891952514648e-01</leafValues></_>
        <_>
          <internalNodes>
            0 -1 63 -6.5883025527000427e-03</internalNodes>
          <leafValues>
            5.3115624189376831e-01 -2.3035812377929688e-01</leafValues></_>
        <_>
          <internalNodes>
            0 -1 250 -1.2408331967890263e-03</internalNodes>
          <leafValues>
            4.6167847514152527e-01 -2.4247413873672485e-01</leafValues></_>
        <_>
          <internalNodes>
            0 -1 16 -1.1767712421715260e-02</internalNodes>
          <leafValues>
            6.2827038764953613e-01 -2.1886913478374481e-01</leafValues></_></weakClassifiers></_>
    <!-- stage 17 -->
    <_>
      <maxWeakCount>12</maxWeakCount>
      <stageThreshold>-1.1730287075042725e+00</stageThreshold>
      <weakClassifiers>
        <_>
          <internalNodes>
            0 -1 216 -9.2598507180809975e-03</internalNodes>
          <leafValues>
            -7.7168947458267212e-01 4.1202026605606079e-01</leafValues></_>
        <_>
          <internalNodes>
            0 -1 301 -2.0852305169682950e-04</internalNodes>
          <leafValues>
            -7.9875290393829346e-01 1.9511781632900238e-01</leafValues></_>
        <_>
          <internalNodes>
            0 -1 62 4.3599501252174377e-02</internalNodes>
          <leafValues>
            -1.9940195977687836e-01 8.1748658418655396e-01</leafValues></_>
        <_>
          <internalNodes>
            0 -1 287 -1.7124808800872415e-04</internalNodes>
          <leafValues>
            8.1771636009216309e-01 -1.2465621531009674e-01</leafValues></_>
        <_>
          <internalNodes>
            0 -1 235 5.7932073250412941e-03</internalNodes>
          <leafValues>
            -1.6273880004882812e-01 6.8914908170700073e-01</leafValues></_>
        <_>
          <internalNodes>
            0 -1 116 2.8737848624587059e-03</internalNodes>
          <leafValues>
            -3.0534732341766357e-01 4.2197647690773010e-01</leafValues></_>
        <_>
          <internalNodes>
            0 -1 82 7.1136569604277611e-03</internalNodes>
          <leafValues>
            -1.3764493167400360e-01 8.1759393215179443e-01</leafValues></_>
        <_>
          <internalNodes>
            0 -1 119 4.9511967517901212e-05</internalNodes>
          <leafValues>
            -3.2157793641090393e-01 3.6308121681213379e-01</leafValues></_>
        <_>
          <internalNodes>
            0 -1 230 -6.2460363551508635e-05</internalNodes>
          <leafValues>
            -7.6728385686874390e-01 1.6852837800979614e-01</leafValues></_>
        <_>
          <internalNodes>
            0 -1 68 1.6415680875070393e-05</internalNodes>
          <leafValues>
            1.4274030923843384e-01 -6.7194175720214844e-01</leafValues></_>
        <_>
          <internalNodes>
            0 -1 102 -1.4338920591399074e-03</internalNodes>
          <leafValues>
            8.0530989170074463e-01 -1.5579541027545929e-01</leafValues></_>
        <_>
          <internalNodes>
            0 -1 131 3.0079666525125504e-02</internalNodes>
          <leafValues>
            1.6904103755950928e-01 -7.6015788316726685e-01</leafValues></_></weakClassifiers></_>
    <!-- stage 18 -->
    <_>
      <maxWeakCount>16</maxWeakCount>
      <stageThreshold>-1.1106604337692261e+00</stageThreshold>
      <weakClassifiers>
        <_>
          <internalNodes>
            0 -1 73 -5.8277626521885395e-05</internalNodes>
          <leafValues>
            -4.0838852524757385e-01 5.1002615690231323e-01</leafValues></_>
        <_>
          <internalNodes>
            0 -1 58 -6.9942860864102840e-03</internalNodes>
          <leafValues>
            5.4933285713195801e-01 -2.9661688208580017e-01</leafValues></_>
        <_>
          <internalNodes>
            0 -1 171 8.0962870270013809e-03</internalNodes>
          <leafValues>
            2.1781675517559052e-01 -6.8709945678710938e-01</leafValues></_>
        <_>
          <internalNodes>
            0 -1 41 -5.1302646170370281e-05</internalNodes>
          <leafValues>
            3.8724410533905029e-01 -3.4943601489067078e-01</leafValues></_>
        <_>
          <internalNodes>
            0 -1 105 -3.4714126959443092e-03</internalNodes>
          <leafValues>
            7.8290581703186035e-01 -1.7391249537467957e-01</leafValues></_>
        <_>
          <internalNodes>
            0 -1 255 -5.9251217171549797e-03</internalNodes>
          <leafValues>
            7.7606475353240967e-01 -1.6537697613239288e-01</leafValues></_>
        <_>
          <internalNodes>
            0 -1 71 -1.2411934323608875e-02</internalNodes>
          <leafValues>
            8.8569951057434082e-01 -1.2332376092672348e-01</leafValues></_>
        <_>
          <internalNodes>
            0 -1 91 7.1982399094849825e-04</internalNodes>
          <leafValues>
            -1.5660956501960754e-01 6.9720053672790527e-01</leafValues></_>
        <_>
          <internalNodes>
            0 -1 2 1.9262596964836121e-02</internalNodes>
          <leafValues>
            -1.5103285014629364e-01 7.1442174911499023e-01</leafValues></_>
        <_>
          <internalNodes>
            0 -1 284 -5.6434939324390143e-05</internalNodes>
          <leafValues>
            -6.2683665752410889e-01 1.9877426326274872e-01</leafValues></_>
        <_>
          <internalNodes>
            0 -1 108 3.8994452916085720e-04</internalNodes>
          <leafValues>
            -2.5096455216407776e-01 5.3412508964538574e-01</leafValues></_>
        <_>
          <internalNodes>
            0 -1 49 3.1393114477396011e-04</internalNodes>
          <leafValues>
            -1.4975605905056000e-01 8.0921524763107300e-01</leafValues></_>
        <_>
          <internalNodes>
            0 -1 34 -8.0310143530368805e-03</internalNodes>
          <leafValues>
            6.0028052330017090e-01 -1.9179373979568481e-01</leafValues></_>
        <_>
          <internalNodes>
            0 -1 177 2.4484370442223735e-06</internalNodes>
          <leafValues>
            -3.7940540909767151e-01 3.6827018857002258e-01</leafValues></_>
        <_>
          <internalNodes>
            0 -1 57 -3.6232727579772472e-03</internalNodes>
          <leafValues>
            6.7034983634948730e-01 -1.7594201862812042e-01</leafValues></_>
        <_>
          <internalNodes>
            0 -1 36 6.6960416734218597e-04</internalNodes>
          <leafValues>
            -1.2264170497655869e-01 8.6970323324203491e-01</leafValues></_></weakClassifiers></_>
    <!-- stage 19 -->
    <_>
      <maxWeakCount>15</maxWeakCount>
      <stageThreshold>-1.3983472585678101e+00</stageThreshold>
      <weakClassifiers>
        <_>
          <internalNodes>
            0 -1 95 1.4011010527610779e-02</internalNodes>
          <leafValues>
            4.7124600410461426e-01 -5.4597699642181396e-01</leafValues></_>
        <_>
          <internalNodes>
            0 -1 236 -2.5001924950629473e-03</internalNodes>
          <leafValues>
            5.2016806602478027e-01 -3.1113371253013611e-01</leafValues></_>
        <_>
          <internalNodes>
            0 -1 59 -2.9046834242762998e-05</internalNodes>
          <leafValues>
            3.8307535648345947e-01 -3.4097686409950256e-01</leafValues></_>
        <_>
          <internalNodes>
            0 -1 140 3.2642451114952564e-03</internalNodes>
          <leafValues>
            -2.4706594645977020e-01 5.4682523012161255e-01</leafValues></_>
        <_>
          <internalNodes>
            0 -1 221 -1.4373362064361572e-03</internalNodes>
          <leafValues>
            6.8697535991668701e-01 -2.2372849285602570e-01</leafValues></_>
        <_>
          <internalNodes>
            0 -1 276 -2.0260611108824378e-06</internalNodes>
          <leafValues>
            4.5001146197319031e-01 -2.6733851432800293e-01</leafValues></_>
        <_>
          <internalNodes>
            0 -1 289 5.9933423472102731e-05</internalNodes>
          <leafValues>
            -1.3884350657463074e-01 8.9226508140563965e-01</leafValues></_>
        <_>
          <internalNodes>
            0 -1 6 -1.1607680062297732e-04</internalNodes>
          <leafValues>
            8.3247178792953491e-01 -1.2463693320751190e-01</leafValues></_>
        <_>
          <internalNodes>
            0 -1 128 4.8809997679200023e-05</internalNodes>
          <leafValues>
            -2.4148118495941162e-01 4.9234795570373535e-01</leafValues></_>
        <_>
          <internalNodes>
            0 -1 186 5.9794704429805279e-04</internalNodes>
          <leafValues>
            -1.9536773860454559e-01 6.2240457534790039e-01</leafValues></_>
        <_>
          <internalNodes>
            0 -1 87 -1.1887466826010495e-05</internalNodes>
          <leafValues>
            4.0039023756980896e-01 -3.2081851363182068e-01</leafValues></_>
        <_>
          <internalNodes>
            0 -1 197 -4.2624567868188024e-05</internalNodes>
          <leafValues>
            -6.8869203329086304e-01 2.0353482663631439e-01</leafValues></_>
        <_>
          <internalNodes>
            0 -1 226 2.1711227873311145e-06</internalNodes>
          <leafValues>
            -4.0213072299957275e-01 3.0196315050125122e-01</leafValues></_>
        <_>
          <internalNodes>
            0 -1 55 1.1601608712226152e-03</internalNodes>
          <leafValues>
            -1.9062034785747528e-01 7.0124500989913940e-01</leafValues></_>
        <_>
          <internalNodes>
            0 -1 215 4.4636375969275832e-04</internalNodes>
          <leafValues>
            -2.2551254928112030e-01 6.0086131095886230e-01</leafValues></_></weakClassifiers></_></stages>
  <features>
    <_>
      <rects>
        <_>
          0 0 4 6 -1.</_>
        <_>
          1 0 2 6 2.</_></rects>
      <tilted>0</tilted></_>
    <_>
      <rects>
        <_>
          0 0 4 4 -1.</_>
        <_>
          2 0 2 4 2.</_></rects>
      <tilted>0</tilted></_>
    <_>
      <rects>
        <_>
          0 0 18 18 -1.</_>
        <_>
          6 0 6 18 3.</_></rects>
      <tilted>0</tilted></_>
    <_>
      <rects>
        <_>
          0 2 3 29 -1.</_>
        <_>
          1 2 1 29 3.</_></rects>
      <tilted>0</tilted></_>
    <_>
      <rects>
        <_>
          0 3 2 1 -1.</_>
        <_>
          1 3 1 1 2.</_></rects>
      <tilted>0</tilted></_>
    <_>
      <rects>
        <_>
          0 3 2 2 -1.</_>
        <_>
          0 3 1 1 2.</_>
        <_>
          1 4 1 1 2.</_></rects>
      <tilted>0</tilted></_>
    <_>
      <rects>
        <_>
          0 4 4 1 -1.</_>
        <_>
          1 4 2 1 2.</_></rects>
      <tilted>0</tilted></_>
    <_>
      <rects>
        <_>
          0 4 18 27 -1.</_>
        <_>
          6 4 6 27 3.</_></rects>
      <tilted>0</tilted></_>
    <_>
      <rects>
        <_>
          0 5 3 22 -1.</_>
        <_>
          1 5 1 22 3.</_></rects>
      <tilted>0</tilted></_>
    <_>
      <rects>
        <_>
          0 5 8 23 -1.</_>
        <_>
          4 5 4 23 2.</_></rects>
      <tilted>0</tilted></_>
    <_>
      <rects>
        <_>
          0 5 12 35 -1.</_>
        <_>
          6 5 6 35 2.</_></rects>
      <tilted>0</tilted></_>
    <_>
      <rects>
        <_>
          0 5 24 30 -1.</_>
        <_>
          0 5 12 15 2.</_>
        <_>
          12 20 12 15 2.</_></rects>
      <tilted>0</tilted></_>
    <_>
      <rects>
        <_>
          0 7 2 1 -1.</_>
        <_>
          1 7 1 1 2.</_></rects>
      <tilted>0</tilted></_>
    <_>
      <rects>
        <_>
          0 8 8 20 -1.</_>
        <_>
          4 8 4 20 2.</_></rects>
      <tilted>0</tilted></_>
    <_>
      <rects>
        <_>
          0 9 8 19 -1.</_>
        <_>
          4 9 4 19 2.</_></rects>
      <tilted>0</tilted></_>
    <_>
      <rects>
        <_>
          0 10 9 18 -1.</_>
        <_>
          3 16 3 6 9.</_></rects>
      <tilted>0</tilted></_>
    <_>
      <rects>
        <_>
          0 10 4 22 -1.</_>
        <_>
          0 21 4 11 2.</_></rects>
      <tilted>0</tilted></_>
    <_>
      <rects>
        <_>
          0 14 1 16 -1.</_>
        <_>
          0 18 1 8 2.</_></rects>
      <tilted>0</tilted></_>
    <_>
      <rects>
        <_>
          0 21 3 6 -1.</_>
        <_>
          1 23 1 2 9.</_></rects>
      <tilted>0</tilted></_>
    <_>
      <rects>
        <_>
          0 25 3 3 -1.</_>
        <_>
          1 26 1 1 9.</_></rects>
      <tilted>0</tilted></_>
    <_>
      <rects>
        <_>
          0 25 36 7 -1.</_>
        <_>
          12 25 12 7 3.</_></rects>
      <tilted>0</tilted></_>
    <_>
      <rects>
        <_>
          0 38 4 2 -1.</_>
        <_>
          0 39 4 1 2.</_></rects>
      <tilted>0</tilted></_>
    <_>
      <rects>
        <_>
          1 0 2 2 -1.</_>
        <_>
          1 1 2 1 2.</_></rects>
      <tilted>0</tilted></_>
    <_>
      <rects>
        <_>
          1 1 2 2 -1.</_>
        <_>
          2 1 1 2 2.</_></rects>
      <tilted>0</tilted></_>
    <_>
      <rects>
        <_>
          1 2 4 3 -1.</_>
        <_>
          2 2 2 3 2.</_></rects>
      <tilted>0</tilted></_>
    <_>
      <rects>
        <_>
          1 3 3 3 -1.</_>
        <_>
          2 4 1 1 9.</_></rects>
      <tilted>0</tilted></_>
    <_>
      <rects>
        <_>
          1 6 3 1 -1.</_>
        <_>
          2 6 1 1 3.</_></rects>
      <tilted>0</tilted></_>
    <_>
      <rects>
        <_>
          1 10 32 14 -1.</_>
        <_>
          9 10 16 14 2.</_></rects>
      <tilted>0</tilted></_>
    <_>
      <rects>
        <_>
          1 18 6 1 -1.</_>
        <_>
          3 20 2 1 3.</_></rects>
      <tilted>1</tilted></_>
    <_>
      <rects>
        <_>
          1 23 2 16 -1.</_>
        <_>
          1 23 1 8 2.</_>
        <_>
          2 31 1 8 2.</_></rects>
      <tilted>0</tilted></_>
    <_>
      <rects>
        <_>
          1 31 4 8 -1.</_>
        <_>
          1 31 2 4 2.</_>
        <_>
          3 35 2 4 2.</_></rects>
      <tilted>0</tilted></_>
    <_>
      <rects>
        <_>
          2 3 2 6 -1.</_>
        <_>
          2 3 1 3 2.</_>
        <_>
          3 6 1 3 2.</_></rects>
      <tilted>0</tilted></_>
    <_>
      <rects>
        <_>
          2 3 6 2 -1.</_>
        <_>
          4 3 2 2 3.</_></rects>
      <tilted>0</tilted></_>
    <_>
      <rects>
        <_>
          2 7 22 28 -1.</_>
        <_>
          2 7 11 14 2.</_>
        <_>
          13 21 11 14 2.</_></rects>
      <tilted>0</tilted></_>
    <_>
      <rects>
        <_>
          2 8 2 26 -1.</_>
        <_>
          2 21 2 13 2.</_></rects>
      <tilted>0</tilted></_>
    <_>
      <rects>
        <_>
          2 15 34 10 -1.</_>
        <_>
          2 15 17 5 2.</_>
        <_>
          19 20 17 5 2.</_></rects>
      <tilted>0</tilted></_>
    <_>
      <rects>
        <_>
          2 24 3 3 -1.</_>
        <_>
          3 25 1 1 9.</_></rects>
      <tilted>0</tilted></_>
    <_>
      <rects>
        <_>
          3 2 4 3 -1.</_>
        <_>
          4 2 2 3 2.</_></rects>
      <tilted>0</tilted></_>
    <_>
      <rects>
        <_>
          3 11 6 23 -1.</_>
        <_>
          5 11 2 23 3.</_></rects>
      <tilted>0</tilted></_>
    <_>
      <rects>
        <_>
          3 12 3 3 -1.</_>
        <_>
          4 13 1 3 3.</_></rects>
      <tilted>1</tilted></_>
    <_>
      <rects>
        <_>
          3 36 1 3 -1.</_>
        <_>
          3 37 1 1 3.</_></rects>
      <tilted>0</tilted></_>
    <_>
      <rects>
        <_>
          4 0 2 4 -1.</_>
        <_>
          4 0 2 2 2.</_></rects>
      <tilted>1</tilted></_>
    <_>
      <rects>
        <_>
          4 12 1 24 -1.</_>
        <_>
          4 24 1 12 2.</_></rects>
      <tilted>0</tilted></_>
    <_>
      <rects>
        <_>
          4 13 4 1 -1.</_>
        <_>
          5 14 2 1 2.</_></rects>
      <tilted>1</tilted></_>
    <_>
      <rects>
        <_>
          4 16 2 22 -1.</_>
        <_>
          4 27 2 11 2.</_></rects>
      <tilted>0</tilted></_>
    <_>
      <rects>
        <_>
          5 9 2 3 -1.</_>
        <_>
          5 9 1 3 2.</_></rects>
      <tilted>1</tilted></_>
    <_>
      <rects>
        <_>
          5 12 6 1 -1.</_>
        <_>
          7 14 2 1 3.</_></rects>
      <tilted>1</tilted></_>
    <_>
      <rects>
        <_>
          5 13 68 8 -1.</_>
        <_>
          39 13 34 8 2.</_></rects>
      <tilted>0</tilted></_>
    <_>
      <rects>
        <_>
          5 19 24 7 -1.</_>
        <_>
          13 19 8 7 3.</_></rects>
      <tilted>0</tilted></_>
    <_>
      <rects>
        <_>
          5 30 1 4 -1.</_>
        <_>
          4 31 1 2 2.</_></rects>
      <tilted>1</tilted></_>
    <_>
      <rects>
        <_>
          5 32 10 4 -1.</_>
        <_>
          5 33 10 2 2.</_></rects>
      <tilted>0</tilted></_>
    <_>
      <rects>
        <_>
          6 1 8 10 -1.</_>
        <_>
          8 1 4 10 2.</_></rects>
      <tilted>0</tilted></_>
    <_>
      <rects>
        <_>
          6 10 21 27 -1.</_>
        <_>
          13 19 7 9 9.</_></rects>
      <tilted>0</tilted></_>
    <_>
      <rects>
        <_>
          6 17 21 9 -1.</_>
        <_>
          13 17 7 9 3.</_></rects>
      <tilted>0</tilted></_>
    <_>
      <rects>
        <_>
          6 17 21 11 -1.</_>
        <_>
          13 17 7 11 3.</_></rects>
      <tilted>0</tilted></_>
    <_>
      <rects>
        <_>
          6 24 3 4 -1.</_>
        <_>
          6 24 3 2 2.</_></rects>
      <tilted>1</tilted></_>
    <_>
      <rects>
        <_>
          8 0 12 8 -1.</_>
        <_>
          14 0 6 8 2.</_></rects>
      <tilted>0</tilted></_>
    <_>
      <rects>
        <_>
          8 18 3 18 -1.</_>
        <_>
          8 24 3 6 3.</_></rects>
      <tilted>0</tilted></_>
    <_>
      <rects>
        <_>
          8 19 24 18 -1.</_>
        <_>
          14 19 12 18 2.</_></rects>
      <tilted>0</tilted></_>
    <_>
      <rects>
        <_>
          8 27 5 12 -1.</_>
        <_>
          8 31 5 4 3.</_></rects>
      <tilted>0</tilted></_>
    <_>
      <rects>
        <_>
          8 34 10 2 -1.</_>
        <_>
          8 35 10 1 2.</_></rects>
      <tilted>0</tilted></_>
    <_>
      <rects>
        <_>
          8 37 3 2 -1.</_>
        <_>
          9 37 1 2 3.</_></rects>
      <tilted>0</tilted></_>
    <_>
      <rects>
        <_>
          9 7 16 9 -1.</_>
        <_>
          9 7 8 9 2.</_></rects>
      <tilted>1</tilted></_>
    <_>
      <rects>
        <_>
          9 17 16 23 -1.</_>
        <_>
          13 17 8 23 2.</_></rects>
      <tilted>0</tilted></_>
    <_>
      <rects>
        <_>
          10 3 8 6 -1.</_>
        <_>
          14 3 4 6 2.</_></rects>
      <tilted>0</tilted></_>
    <_>
      <rects>
        <_>
          10 14 4 2 -1.</_>
        <_>
          10 15 4 1 2.</_></rects>
      <tilted>0</tilted></_>
    <_>
      <rects>
        <_>
          10 34 6 4 -1.</_>
        <_>
          10 35 6 2 2.</_></rects>
      <tilted>0</tilted></_>
    <_>
      <rects>
        <_>
          11 2 48 15 -1.</_>
        <_>
          27 2 16 15 3.</_></rects>
      <tilted>0</tilted></_>
    <_>
      <rects>
        <_>
          11 38 2 1 -1.</_>
        <_>
          12 38 1 1 2.</_></rects>
      <tilted>0</tilted></_>
    <_>
      <rects>
        <_>
          12 3 1 12 -1.</_>
        <_>
          8 7 1 4 3.</_></rects>
      <tilted>1</tilted></_>
    <_>
      <rects>
        <_>
          14 3 46 24 -1.</_>
        <_>
          37 3 23 24 2.</_></rects>
      <tilted>0</tilted></_>
    <_>
      <rects>
        <_>
          14 4 48 6 -1.</_>
        <_>
          14 4 24 3 2.</_>
        <_>
          38 7 24 3 2.</_></rects>
      <tilted>0</tilted></_>
    <_>
      <rects>
        <_>
          15 8 20 9 -1.</_>
        <_>
          12 11 20 3 3.</_></rects>
      <tilted>1</tilted></_>
    <_>
      <rects>
        <_>
          15 39 4 1 -1.</_>
        <_>
          17 39 2 1 2.</_></rects>
      <tilted>0</tilted></_>
    <_>
      <rects>
        <_>
          17 10 10 12 -1.</_>
        <_>
          17 10 5 6 2.</_>
        <_>
          22 16 5 6 2.</_></rects>
      <tilted>0</tilted></_>
    <_>
      <rects>
        <_>
          17 34 57 6 -1.</_>
        <_>
          17 37 57 3 2.</_></rects>
      <tilted>0</tilted></_>
    <_>
      <rects>
        <_>
          18 3 17 4 -1.</_>
        <_>
          18 5 17 2 2.</_></rects>
      <tilted>0</tilted></_>
    <_>
      <rects>
        <_>
          18 26 60 12 -1.</_>
        <_>
          38 30 20 4 9.</_></rects>
      <tilted>0</tilted></_>
    <_>
      <rects>
        <_>
          19 5 36 22 -1.</_>
        <_>
          37 5 18 22 2.</_></rects>
      <tilted>0</tilted></_>
    <_>
      <rects>
        <_>
          19 7 6 16 -1.</_>
        <_>
          19 7 3 8 2.</_>
        <_>
          22 15 3 8 2.</_></rects>
      <tilted>0</tilted></_>
    <_>
      <rects>
        <_>
          20 0 8 2 -1.</_>
        <_>
          24 0 4 2 2.</_></rects>
      <tilted>0</tilted></_>
    <_>
      <rects>
        <_>
          20 9 33 29 -1.</_>
        <_>
          31 9 11 29 3.</_></rects>
      <tilted>0</tilted></_>
    <_>
      <rects>
        <_>
          21 17 12 8 -1.</_>
        <_>
          19 19 12 4 2.</_></rects>
      <tilted>1</tilted></_>
    <_>
      <rects>
        <_>
          21 19 36 13 -1.</_>
        <_>
          33 19 12 13 3.</_></rects>
      <tilted>0</tilted></_>
    <_>
      <rects>
        <_>
          22 18 34 8 -1.</_>
        <_>
          22 22 34 4 2.</_></rects>
      <tilted>0</tilted></_>
    <_>
      <rects>
        <_>
          23 2 9 9 -1.</_>
        <_>
          23 5 9 3 3.</_></rects>
      <tilted>0</tilted></_>
    <_>
      <rects>
        <_>
          23 18 8 8 -1.</_>
        <_>
          25 20 4 8 2.</_></rects>
      <tilted>1</tilted></_>
    <_>
      <rects>
        <_>
          23 20 1 15 -1.</_>
        <_>
          18 25 1 5 3.</_></rects>
      <tilted>1</tilted></_>
    <_>
      <rects>
        <_>
          23 30 28 10 -1.</_>
        <_>
          23 30 14 5 2.</_>
        <_>
          37 35 14 5 2.</_></rects>
      <tilted>0</tilted></_>
    <_>
      <rects>
        <_>
          24 7 28 18 -1.</_>
        <_>
          31 7 14 18 2.</_></rects>
      <tilted>0</tilted></_>
    <_>
      <rects>
        <_>
          24 20 25 3 -1.</_>
        <_>
          24 21 25 1 3.</_></rects>
      <tilted>0</tilted></_>
    <_>
      <rects>
        <_>
          25 1 4 26 -1.</_>
        <_>
          26 1 2 26 2.</_></rects>
      <tilted>0</tilted></_>
    <_>
      <rects>
        <_>
          26 0 8 26 -1.</_>
        <_>
          28 0 4 26 2.</_></rects>
      <tilted>0</tilted></_>
    <_>
      <rects>
        <_>
          26 10 18 6 -1.</_>
        <_>
          32 12 6 2 9.</_></rects>
      <tilted>0</tilted></_>
    <_>
      <rects>
        <_>
          26 12 19 16 -1.</_>
        <_>
          26 20 19 8 2.</_></rects>
      <tilted>0</tilted></_>
    <_>
      <rects>
        <_>
          26 15 42 3 -1.</_>
        <_>
          47 15 21 3 2.</_></rects>
      <tilted>0</tilted></_>
    <_>
      <rects>
        <_>
          26 22 18 18 -1.</_>
        <_>
          32 22 6 18 3.</_></rects>
      <tilted>0</tilted></_>
    <_>
      <rects>
        <_>
          27 12 20 11 -1.</_>
        <_>
          37 12 10 11 2.</_></rects>
      <tilted>0</tilted></_>
    <_>
      <rects>
        <_>
          27 12 30 20 -1.</_>
        <_>
          37 12 10 20 3.</_></rects>
      <tilted>0</tilted></_>
    <_>
      <rects>
        <_>
          27 17 13 2 -1.</_>
        <_>
          27 18 13 1 2.</_></rects>
      <tilted>0</tilted></_>
    <_>
      <rects>
        <_>
          27 18 9 8 -1.</_>
        <_>
          30 21 3 8 3.</_></rects>
      <tilted>1</tilted></_>
    <_>
      <rects>
        <_>
          28 1 32 30 -1.</_>
        <_>
          36 1 16 30 2.</_></rects>
      <tilted>0</tilted></_>
    <_>
      <rects>
        <_>
          28 8 4 9 -1.</_>
        <_>
          29 9 2 9 2.</_></rects>
      <tilted>1</tilted></_>
    <_>
      <rects>
        <_>
          29 0 43 2 -1.</_>
        <_>
          29 1 43 1 2.</_></rects>
      <tilted>0</tilted></_>
    <_>
      <rects>
        <_>
          29 5 39 13 -1.</_>
        <_>
          42 5 13 13 3.</_></rects>
      <tilted>0</tilted></_>
    <_>
      <rects>
        <_>
          29 12 16 4 -1.</_>
        <_>
          33 12 8 4 2.</_></rects>
      <tilted>0</tilted></_>
    <_>
      <rects>
        <_>
          29 13 22 27 -1.</_>
        <_>
          29 22 22 9 3.</_></rects>
      <tilted>0</tilted></_>
    <_>
      <rects>
        <_>
          29 16 27 19 -1.</_>
        <_>
          38 16 9 19 3.</_></rects>
      <tilted>0</tilted></_>
    <_>
      <rects>
        <_>
          29 21 9 3 -1.</_>
        <_>
          32 21 3 3 3.</_></rects>
      <tilted>0</tilted></_>
    <_>
      <rects>
        <_>
          29 28 48 9 -1.</_>
        <_>
          45 31 16 3 9.</_></rects>
      <tilted>0</tilted></_>
    <_>
      <rects>
        <_>
          30 10 22 8 -1.</_>
        <_>
          30 12 22 4 2.</_></rects>
      <tilted>0</tilted></_>
    <_>
      <rects>
        <_>
          30 23 20 1 -1.</_>
        <_>
          35 23 10 1 2.</_></rects>
      <tilted>0</tilted></_>
    <_>
      <rects>
        <_>
          31 0 3 8 -1.</_>
        <_>
          31 2 3 4 2.</_></rects>
      <tilted>0</tilted></_>
    <_>
      <rects>
        <_>
          31 3 30 21 -1.</_>
        <_>
          41 3 10 21 3.</_></rects>
      <tilted>0</tilted></_>
    <_>
      <rects>
        <_>
          31 9 13 28 -1.</_>
        <_>
          31 23 13 14 2.</_></rects>
      <tilted>0</tilted></_>
    <_>
      <rects>
        <_>
          31 18 18 18 -1.</_>
        <_>
          37 18 6 18 3.</_></rects>
      <tilted>0</tilted></_>
    <_>
      <rects>
        <_>
          32 5 46 4 -1.</_>
        <_>
          55 5 23 4 2.</_></rects>
      <tilted>0</tilted></_>
    <_>
      <rects>
        <_>
          32 12 15 6 -1.</_>
        <_>
          37 17 5 6 3.</_></rects>
      <tilted>1</tilted></_>
    <_>
      <rects>
        <_>
          32 21 6 12 -1.</_>
        <_>
          34 23 2 12 3.</_></rects>
      <tilted>1</tilted></_>
    <_>
      <rects>
        <_>
          32 22 6 2 -1.</_>
        <_>
          32 23 6 1 2.</_></rects>
      <tilted>0</tilted></_>
    <_>
      <rects>
        <_>
          32 23 23 3 -1.</_>
        <_>
          32 24 23 1 3.</_></rects>
      <tilted>0</tilted></_>
    <_>
      <rects>
        <_>
          32 24 13 14 -1.</_>
        <_>
          32 31 13 7 2.</_></rects>
      <tilted>0</tilted></_>
    <_>
      <rects>
        <_>
          33 8 11 32 -1.</_>
        <_>
          33 24 11 16 2.</_></rects>
      <tilted>0</tilted></_>
    <_>
      <rects>
        <_>
          33 10 6 2 -1.</_>
        <_>
          35 12 2 2 3.</_></rects>
      <tilted>1</tilted></_>
    <_>
      <rects>
        <_>
          33 12 4 8 -1.</_>
        <_>
          33 12 2 4 2.</_>
        <_>
          35 16 2 4 2.</_></rects>
      <tilted>0</tilted></_>
    <_>
      <rects>
        <_>
          33 14 12 9 -1.</_>
        <_>
          37 18 4 9 3.</_></rects>
      <tilted>1</tilted></_>
    <_>
      <rects>
        <_>
          33 15 12 5 -1.</_>
        <_>
          37 19 4 5 3.</_></rects>
      <tilted>1</tilted></_>
    <_>
      <rects>
        <_>
          33 15 24 17 -1.</_>
        <_>
          41 15 8 17 3.</_></rects>
      <tilted>0</tilted></_>
    <_>
      <rects>
        <_>
          33 18 2 3 -1.</_>
        <_>
          34 18 1 3 2.</_></rects>
      <tilted>0</tilted></_>
    <_>
      <rects>
        <_>
          33 22 13 3 -1.</_>
        <_>
          33 23 13 1 3.</_></rects>
      <tilted>0</tilted></_>
    <_>
      <rects>
        <_>
          33 24 4 1 -1.</_>
        <_>
          34 24 2 1 2.</_></rects>
      <tilted>0</tilted></_>
    <_>
      <rects>
        <_>
          34 1 22 36 -1.</_>
        <_>
          34 1 11 18 2.</_>
        <_>
          45 19 11 18 2.</_></rects>
      <tilted>0</tilted></_>
    <_>
      <rects>
        <_>
          34 2 7 8 -1.</_>
        <_>
          34 4 7 4 2.</_></rects>
      <tilted>0</tilted></_>
    <_>
      <rects>
        <_>
          34 7 4 4 -1.</_>
        <_>
          34 8 4 2 2.</_></rects>
      <tilted>0</tilted></_>
    <_>
      <rects>
        <_>
          34 11 6 11 -1.</_>
        <_>
          36 11 2 11 3.</_></rects>
      <tilted>0</tilted></_>
    <_>
      <rects>
        <_>
          34 11 26 12 -1.</_>
        <_>
          47 11 13 12 2.</_></rects>
      <tilted>0</tilted></_>
    <_>
      <rects>
        <_>
          34 12 3 2 -1.</_>
        <_>
          35 13 1 2 3.</_></rects>
      <tilted>1</tilted></_>
    <_>
      <rects>
        <_>
          34 12 3 8 -1.</_>
        <_>
          35 13 1 8 3.</_></rects>
      <tilted>1</tilted></_>
    <_>
      <rects>
        <_>
          35 0 6 2 -1.</_>
        <_>
          35 0 3 1 2.</_>
        <_>
          38 1 3 1 2.</_></rects>
      <tilted>0</tilted></_>
    <_>
      <rects>
        <_>
          35 0 8 1 -1.</_>
        <_>
          39 0 4 1 2.</_></rects>
      <tilted>0</tilted></_>
    <_>
      <rects>
        <_>
          35 2 15 3 -1.</_>
        <_>
          40 7 5 3 3.</_></rects>
      <tilted>1</tilted></_>
    <_>
      <rects>
        <_>
          35 4 5 12 -1.</_>
        <_>
          35 8 5 4 3.</_></rects>
      <tilted>0</tilted></_>
    <_>
      <rects>
        <_>
          35 8 6 9 -1.</_>
        <_>
          37 10 2 9 3.</_></rects>
      <tilted>1</tilted></_>
    <_>
      <rects>
        <_>
          35 11 4 4 -1.</_>
        <_>
          36 12 2 4 2.</_></rects>
      <tilted>1</tilted></_>
    <_>
      <rects>
        <_>
          35 11 4 11 -1.</_>
        <_>
          36 11 2 11 2.</_></rects>
      <tilted>0</tilted></_>
    <_>
      <rects>
        <_>
          35 11 9 10 -1.</_>
        <_>
          38 11 3 10 3.</_></rects>
      <tilted>0</tilted></_>
    <_>
      <rects>
        <_>
          35 13 4 7 -1.</_>
        <_>
          36 13 2 7 2.</_></rects>
      <tilted>0</tilted></_>
    <_>
      <rects>
        <_>
          35 13 9 9 -1.</_>
        <_>
          38 13 3 9 3.</_></rects>
      <tilted>0</tilted></_>
    <_>
      <rects>
        <_>
          35 14 6 5 -1.</_>
        <_>
          35 14 3 5 2.</_></rects>
      <tilted>1</tilted></_>
    <_>
      <rects>
        <_>
          35 20 3 1 -1.</_>
        <_>
          36 20 1 1 3.</_></rects>
      <tilted>0</tilted></_>
    <_>
      <rects>
        <_>
          35 24 3 4 -1.</_>
        <_>
          36 24 1 4 3.</_></rects>
      <tilted>0</tilted></_>
    <_>
      <rects>
        <_>
          35 25 3 4 -1.</_>
        <_>
          36 25 1 4 3.</_></rects>
      <tilted>0</tilted></_>
    <_>
      <rects>
        <_>
          36 11 12 12 -1.</_>
        <_>
          36 11 6 12 2.</_></rects>
      <tilted>1</tilted></_>
    <_>
      <rects>
        <_>
          36 15 8 4 -1.</_>
        <_>
          38 15 4 4 2.</_></rects>
      <tilted>0</tilted></_>
    <_>
      <rects>
        <_>
          36 16 12 2 -1.</_>
        <_>
          40 16 4 2 3.</_></rects>
      <tilted>0</tilted></_>
    <_>
      <rects>
        <_>
          37 3 6 33 -1.</_>
        <_>
          39 3 2 33 3.</_></rects>
      <tilted>0</tilted></_>
    <_>
      <rects>
        <_>
          37 5 9 12 -1.</_>
        <_>
          40 9 3 4 9.</_></rects>
      <tilted>0</tilted></_>
    <_>
      <rects>
        <_>
          37 8 3 6 -1.</_>
        <_>
          37 10 3 2 3.</_></rects>
      <tilted>0</tilted></_>
    <_>
      <rects>
        <_>
          37 10 6 13 -1.</_>
        <_>
          39 10 2 13 3.</_></rects>
      <tilted>0</tilted></_>
    <_>
      <rects>
        <_>
          37 15 8 2 -1.</_>
        <_>
          39 15 4 2 2.</_></rects>
      <tilted>0</tilted></_>
    <_>
      <rects>
        <_>
          37 19 4 11 -1.</_>
        <_>
          38 19 2 11 2.</_></rects>
      <tilted>0</tilted></_>
    <_>
      <rects>
        <_>
          37 21 1 2 -1.</_>
        <_>
          37 22 1 1 2.</_></rects>
      <tilted>0</tilted></_>
    <_>
      <rects>
        <_>
          38 7 8 17 -1.</_>
        <_>
          40 7 4 17 2.</_></rects>
      <tilted>0</tilted></_>
    <_>
      <rects>
        <_>
          38 7 4 6 -1.</_>
        <_>
          38 9 4 2 3.</_></rects>
      <tilted>0</tilted></_>
    <_>
      <rects>
        <_>
          38 8 9 16 -1.</_>
        <_>
          41 8 3 16 3.</_></rects>
      <tilted>0</tilted></_>
    <_>
      <rects>
        <_>
          38 9 4 13 -1.</_>
        <_>
          39 9 2 13 2.</_></rects>
      <tilted>0</tilted></_>
    <_>
      <rects>
        <_>
          38 12 9 10 -1.</_>
        <_>
          41 12 3 10 3.</_></rects>
      <tilted>0</tilted></_>
    <_>
      <rects>
        <_>
          38 19 4 3 -1.</_>
        <_>
          39 19 2 3 2.</_></rects>
      <tilted>0</tilted></_>
    <_>
      <rects>
        <_>
          38 22 1 2 -1.</_>
        <_>
          38 23 1 1 2.</_></rects>
      <tilted>0</tilted></_>
    <_>
      <rects>
        <_>
          38 22 6 3 -1.</_>
        <_>
          38 23 6 1 3.</_></rects>
      <tilted>0</tilted></_>
    <_>
      <rects>
        <_>
          38 23 1 3 -1.</_>
        <_>
          38 24 1 1 3.</_></rects>
      <tilted>0</tilted></_>
    <_>
      <rects>
        <_>
          39 11 8 18 -1.</_>
        <_>
          39 11 4 18 2.</_></rects>
      <tilted>1</tilted></_>
    <_>
      <rects>
        <_>
          39 12 9 3 -1.</_>
        <_>
          42 13 3 1 9.</_></rects>
      <tilted>0</tilted></_>
    <_>
      <rects>
        <_>
          39 21 3 12 -1.</_>
        <_>
          40 21 1 12 3.</_></rects>
      <tilted>0</tilted></_>
    <_>
      <rects>
        <_>
          39 23 3 4 -1.</_>
        <_>
          40 23 1 4 3.</_></rects>
      <tilted>0</tilted></_>
    <_>
      <rects>
        <_>
          39 23 2 2 -1.</_>
        <_>
          39 24 2 1 2.</_></rects>
      <tilted>0</tilted></_>
    <_>
      <rects>
        <_>
          39 24 1 2 -1.</_>
        <_>
          39 25 1 1 2.</_></rects>
      <tilted>0</tilted></_>
    <_>
      <rects>
        <_>
          39 24 4 2 -1.</_>
        <_>
          39 25 4 1 2.</_></rects>
      <tilted>0</tilted></_>
    <_>
      <rects>
        <_>
          39 25 6 4 -1.</_>
        <_>
          41 25 2 4 3.</_></rects>
      <tilted>0</tilted></_>
    <_>
      <rects>
        <_>
          40 0 4 22 -1.</_>
        <_>
          41 0 2 22 2.</_></rects>
      <tilted>0</tilted></_>
    <_>
      <rects>
        <_>
          40 8 7 4 -1.</_>
        <_>
          40 9 7 2 2.</_></rects>
      <tilted>0</tilted></_>
    <_>
      <rects>
        <_>
          40 14 7 10 -1.</_>
        <_>
          40 14 7 5 2.</_></rects>
      <tilted>1</tilted></_>
    <_>
      <rects>
        <_>
          40 15 10 13 -1.</_>
        <_>
          40 15 5 13 2.</_></rects>
      <tilted>1</tilted></_>
    <_>
      <rects>
        <_>
          40 16 1 10 -1.</_>
        <_>
          40 16 1 5 2.</_></rects>
      <tilted>1</tilted></_>
    <_>
      <rects>
        <_>
          40 22 1 2 -1.</_>
        <_>
          40 23 1 1 2.</_></rects>
      <tilted>0</tilted></_>
    <_>
      <rects>
        <_>
          41 3 5 9 -1.</_>
        <_>
          41 6 5 3 3.</_></rects>
      <tilted>0</tilted></_>
    <_>
      <rects>
        <_>
          41 5 4 19 -1.</_>
        <_>
          42 5 2 19 2.</_></rects>
      <tilted>0</tilted></_>
    <_>
      <rects>
        <_>
          41 6 2 9 -1.</_>
        <_>
          41 9 2 3 3.</_></rects>
      <tilted>0</tilted></_>
    <_>
      <rects>
        <_>
          41 8 4 13 -1.</_>
        <_>
          42 8 2 13 2.</_></rects>
      <tilted>0</tilted></_>
    <_>
      <rects>
        <_>
          41 17 4 19 -1.</_>
        <_>
          41 17 2 19 2.</_></rects>
      <tilted>1</tilted></_>
    <_>
      <rects>
        <_>
          41 19 23 14 -1.</_>
        <_>
          41 26 23 7 2.</_></rects>
      <tilted>0</tilted></_>
    <_>
      <rects>
        <_>
          41 27 3 2 -1.</_>
        <_>
          41 28 3 1 2.</_></rects>
      <tilted>0</tilted></_>
    <_>
      <rects>
        <_>
          42 0 10 1 -1.</_>
        <_>
          47 0 5 1 2.</_></rects>
      <tilted>0</tilted></_>
    <_>
      <rects>
        <_>
          42 0 16 24 -1.</_>
        <_>
          42 0 16 12 2.</_></rects>
      <tilted>1</tilted></_>
    <_>
      <rects>
        <_>
          42 3 6 22 -1.</_>
        <_>
          44 3 2 22 3.</_></rects>
      <tilted>0</tilted></_>
    <_>
      <rects>
        <_>
          42 13 4 8 -1.</_>
        <_>
          43 13 2 8 2.</_></rects>
      <tilted>0</tilted></_>
    <_>
      <rects>
        <_>
          42 22 1 2 -1.</_>
        <_>
          42 23 1 1 2.</_></rects>
      <tilted>0</tilted></_>
    <_>
      <rects>
        <_>
          42 24 3 3 -1.</_>
        <_>
          43 24 1 3 3.</_></rects>
      <tilted>0</tilted></_>
    <_>
      <rects>
        <_>
          42 25 4 11 -1.</_>
        <_>
          43 25 2 11 2.</_></rects>
      <tilted>0</tilted></_>
    <_>
      <rects>
        <_>
          42 27 1 2 -1.</_>
        <_>
          42 28 1 1 2.</_></rects>
      <tilted>0</tilted></_>
    <_>
      <rects>
        <_>
          43 2 2 1 -1.</_>
        <_>
          44 2 1 1 2.</_></rects>
      <tilted>0</tilted></_>
    <_>
      <rects>
        <_>
          43 2 3 9 -1.</_>
        <_>
          43 5 3 3 3.</_></rects>
      <tilted>0</tilted></_>
    <_>
      <rects>
        <_>
          43 4 4 16 -1.</_>
        <_>
          44 4 2 16 2.</_></rects>
      <tilted>0</tilted></_>
    <_>
      <rects>
        <_>
          43 8 10 9 -1.</_>
        <_>
          43 11 10 3 3.</_></rects>
      <tilted>0</tilted></_>
    <_>
      <rects>
        <_>
          43 9 4 13 -1.</_>
        <_>
          44 9 2 13 2.</_></rects>
      <tilted>0</tilted></_>
    <_>
      <rects>
        <_>
          43 15 2 16 -1.</_>
        <_>
          43 15 2 8 2.</_></rects>
      <tilted>1</tilted></_>
    <_>
      <rects>
        <_>
          43 24 3 4 -1.</_>
        <_>
          44 24 1 4 3.</_></rects>
      <tilted>0</tilted></_>
    <_>
      <rects>
        <_>
          43 24 2 2 -1.</_>
        <_>
          43 25 2 1 2.</_></rects>
      <tilted>0</tilted></_>
    <_>
      <rects>
        <_>
          44 1 2 8 -1.</_>
        <_>
          44 1 1 4 2.</_>
        <_>
          45 5 1 4 2.</_></rects>
      <tilted>0</tilted></_>
    <_>
      <rects>
        <_>
          44 1 16 6 -1.</_>
        <_>
          42 3 16 2 3.</_></rects>
      <tilted>1</tilted></_>
    <_>
      <rects>
        <_>
          44 8 6 17 -1.</_>
        <_>
          46 8 2 17 3.</_></rects>
      <tilted>0</tilted></_>
    <_>
      <rects>
        <_>
          44 12 3 6 -1.</_>
        <_>
          45 13 1 6 3.</_></rects>
      <tilted>1</tilted></_>
    <_>
      <rects>
        <_>
          44 23 1 2 -1.</_>
        <_>
          44 24 1 1 2.</_></rects>
      <tilted>0</tilted></_>
    <_>
      <rects>
        <_>
          44 27 36 1 -1.</_>
        <_>
          53 27 18 1 2.</_></rects>
      <tilted>0</tilted></_>
    <_>
      <rects>
        <_>
          45 0 1 4 -1.</_>
        <_>
          45 0 1 2 2.</_></rects>
      <tilted>1</tilted></_>
    <_>
      <rects>
        <_>
          45 15 9 2 -1.</_>
        <_>
          48 15 3 2 3.</_></rects>
      <tilted>0</tilted></_>
    <_>
      <rects>
        <_>
          45 17 23 6 -1.</_>
        <_>
          45 20 23 3 2.</_></rects>
      <tilted>0</tilted></_>
    <_>
      <rects>
        <_>
          45 22 1 2 -1.</_>
        <_>
          45 23 1 1 2.</_></rects>
      <tilted>0</tilted></_>
    <_>
      <rects>
        <_>
          45 23 3 8 -1.</_>
        <_>
          46 23 1 8 3.</_></rects>
      <tilted>0</tilted></_>
    <_>
      <rects>
        <_>
          45 26 3 3 -1.</_>
        <_>
          46 26 1 3 3.</_></rects>
      <tilted>0</tilted></_>
    <_>
      <rects>
        <_>
          46 1 3 6 -1.</_>
        <_>
          47 3 1 2 9.</_></rects>
      <tilted>0</tilted></_>
    <_>
      <rects>
        <_>
          46 2 4 18 -1.</_>
        <_>
          46 2 2 9 2.</_>
        <_>
          48 11 2 9 2.</_></rects>
      <tilted>0</tilted></_>
    <_>
      <rects>
        <_>
          46 7 3 12 -1.</_>
        <_>
          47 8 1 12 3.</_></rects>
      <tilted>1</tilted></_>
    <_>
      <rects>
        <_>
          46 22 1 2 -1.</_>
        <_>
          46 23 1 1 2.</_></rects>
      <tilted>0</tilted></_>
    <_>
      <rects>
        <_>
          46 22 8 3 -1.</_>
        <_>
          45 23 8 1 3.</_></rects>
      <tilted>1</tilted></_>
    <_>
      <rects>
        <_>
          46 22 34 7 -1.</_>
        <_>
          63 22 17 7 2.</_></rects>
      <tilted>0</tilted></_>
    <_>
      <rects>
        <_>
          46 23 1 2 -1.</_>
        <_>
          46 24 1 1 2.</_></rects>
      <tilted>0</tilted></_>
    <_>
      <rects>
        <_>
          46 24 9 2 -1.</_>
        <_>
          46 24 9 1 2.</_></rects>
      <tilted>1</tilted></_>
    <_>
      <rects>
        <_>
          46 25 1 2 -1.</_>
        <_>
          46 26 1 1 2.</_></rects>
      <tilted>0</tilted></_>
    <_>
      <rects>
        <_>
          46 26 3 3 -1.</_>
        <_>
          47 26 1 3 3.</_></rects>
      <tilted>0</tilted></_>
    <_>
      <rects>
        <_>
          46 28 3 2 -1.</_>
        <_>
          47 28 1 2 3.</_></rects>
      <tilted>0</tilted></_>
    <_>
      <rects>
        <_>
          47 9 9 4 -1.</_>
        <_>
          46 10 9 2 2.</_></rects>
      <tilted>1</tilted></_>
    <_>
      <rects>
        <_>
          47 19 1 2 -1.</_>
        <_>
          47 20 1 1 2.</_></rects>
      <tilted>0</tilted></_>
    <_>
      <rects>
        <_>
          47 28 3 1 -1.</_>
        <_>
          48 28 1 1 3.</_></rects>
      <tilted>0</tilted></_>
    <_>
      <rects>
        <_>
          48 0 3 2 -1.</_>
        <_>
          49 0 1 2 3.</_></rects>
      <tilted>0</tilted></_>
    <_>
      <rects>
        <_>
          48 9 12 19 -1.</_>
        <_>
          52 9 4 19 3.</_></rects>
      <tilted>0</tilted></_>
    <_>
      <rects>
        <_>
          48 12 26 8 -1.</_>
        <_>
          48 12 13 4 2.</_>
        <_>
          61 16 13 4 2.</_></rects>
      <tilted>0</tilted></_>
    <_>
      <rects>
        <_>
          48 20 2 19 -1.</_>
        <_>
          49 20 1 19 2.</_></rects>
      <tilted>0</tilted></_>
    <_>
      <rects>
        <_>
          48 21 2 2 -1.</_>
        <_>
          48 22 2 1 2.</_></rects>
      <tilted>0</tilted></_>
    <_>
      <rects>
        <_>
          48 22 1 2 -1.</_>
        <_>
          48 23 1 1 2.</_></rects>
      <tilted>0</tilted></_>
    <_>
      <rects>
        <_>
          48 26 3 3 -1.</_>
        <_>
          49 26 1 3 3.</_></rects>
      <tilted>0</tilted></_>
    <_>
      <rects>
        <_>
          49 10 8 12 -1.</_>
        <_>
          49 10 8 6 2.</_></rects>
      <tilted>1</tilted></_>
    <_>
      <rects>
        <_>
          49 13 2 5 -1.</_>
        <_>
          49 13 1 5 2.</_></rects>
      <tilted>1</tilted></_>
    <_>
      <rects>
        <_>
          49 13 2 6 -1.</_>
        <_>
          49 13 1 6 2.</_></rects>
      <tilted>1</tilted></_>
    <_>
      <rects>
        <_>
          49 13 6 3 -1.</_>
        <_>
          49 13 3 3 2.</_></rects>
      <tilted>1</tilted></_>
    <_>
      <rects>
        <_>
          49 13 6 5 -1.</_>
        <_>
          49 13 3 5 2.</_></rects>
      <tilted>1</tilted></_>
    <_>
      <rects>
        <_>
          49 14 4 5 -1.</_>
        <_>
          49 14 2 5 2.</_></rects>
      <tilted>1</tilted></_>
    <_>
      <rects>
        <_>
          49 22 2 1 -1.</_>
        <_>
          50 22 1 1 2.</_></rects>
      <tilted>0</tilted></_>
    <_>
      <rects>
        <_>
          49 25 6 3 -1.</_>
        <_>
          48 26 6 1 3.</_></rects>
      <tilted>1</tilted></_>
    <_>
      <rects>
        <_>
          50 14 8 8 -1.</_>
        <_>
          50 14 8 4 2.</_></rects>
      <tilted>1</tilted></_>
    <_>
      <rects>
        <_>
          50 18 6 7 -1.</_>
        <_>
          50 18 3 7 2.</_></rects>
      <tilted>1</tilted></_>
    <_>
      <rects>
        <_>
          50 23 6 3 -1.</_>
        <_>
          49 24 6 1 3.</_></rects>
      <tilted>1</tilted></_>
    <_>
      <rects>
        <_>
          51 19 8 9 -1.</_>
        <_>
          53 21 4 9 2.</_></rects>
      <tilted>1</tilted></_>
    <_>
      <rects>
        <_>
          52 9 3 9 -1.</_>
        <_>
          49 12 3 3 3.</_></rects>
      <tilted>1</tilted></_>
